2289 128
0 0.022821449 0.16979706 0.0217375 -0.121839136 0.014697881 0.06791487 -0.0070488607 0.13608119 -0.040789712 -0.0039637373 0.0024186694 -0.048892867 -0.12554881 0.06662993 0.042614013 -0.16982858 0.073477 -0.04690779 0.11615339 -0.15146986 0.023216587 -0.12408552 -0.17020954 0.0731547 -0.044075254 -0.18255721 -0.11760688 -0.015810682 0.0853553 -0.10461001 0.018015103 0.14079763 -0.18263546 0.21698129 0.18879847 -0.03141709 0.055109918 -0.016668692 -0.12885828 -0.15864553 0.0023562717 0.07611724 -0.14795546 0.0620241 -0.09780473 0.22128844 -0.12463611 0.19515418 -0.048278436 -0.072257414 0.10039233 0.12856418 0.20852685 -0.060290717 -0.069486156 -0.09226034 0.064643845 0.016038809 -0.027748452 -0.016501913 0.09954483 0.07222517 0.00016336169 0.17468168 0.13832255 -0.02800357 -0.031141015 -0.012732954 0.11546762 0.09380958 -0.022538144 -0.058346756 -0.04863178 -0.20971768 0.09215547 0.17190793 -0.15250425 -0.1262092 0.1423929 0.100220904 -0.1325262 -0.011515184 0.011696324 0.17800307 0.03997878 -0.1458468 0.09551245 -0.0838274 0.0027877418 -0.20302454 -0.020421553 -0.08763442 -0.11758016 -0.035735946 0.08050331 0.14938378 -0.017000118 -0.068366036 0.18315262 0.17467609 0.07212553 0.073975384 0.1297496 0.020125642 -0.32082725 -0.2117522 0.08626532 -0.09077691 -0.0070635444 -0.19061542 0.07422611 -0.02514627 0.1464591 -0.09888841 -0.011734681 0.110315986 -0.09677306 -0.17908263 -0.19789544 -0.011310822 -0.10937379 0.0737916 -0.052255493 0.021630535 -0.047808353 -0.07024295 0.107384294 0.00069264224
7 0.023160756 0.17913614 0.021769132 -0.117765464 0.01631555 0.07976898 -0.008482923 0.13267587 -0.042870928 -0.002364293 0.00040085358 -0.046112776 -0.14125018 0.07548822 0.047182646 -0.17873165 0.07282841 -0.055566803 0.11085472 -0.1577604 0.011802783 -0.12401459 -0.19290084 0.06909821 -0.040317956 -0.18351112 -0.12588528 -0.025826467 0.10375049 -0.105840586 0.010081289 0.14288348 -0.19521962 0.21892296 0.19565143 -0.024038034 0.053880338 -0.0033635572 -0.12921458 -0.16974507 0.0063774767 0.08390856 -0.1599519 0.060165398 -0.09819779 0.22357324 -0.1319288 0.1893323 -0.060243078 -0.08219689 0.10592259 0.13172689 0.21362495 -0.06305718 -0.07002201 -0.08966879 0.068573326 0.017639138 -0.020457162 -0.02791822 0.100820825 0.074041896 -0.0017266492 0.17208265 0.14280778 -0.016193286 -0.034345496 -0.008940958 0.103590876 0.087664425 -0.02117816 -0.05315094 -0.052257113 -0.2169675 0.08267913 0.16308981 -0.14957936 -0.1289802 0.13782527 0.09984686 -0.13375108 -0.009438769 0.013635237 0.18835118 0.0421785 -0.14670092 0.10468777 -0.078956485 0.010719187 -0.21821909 -0.024716051 -0.09003113 -0.11380939 -0.043437835 0.08020693 0.15021649 -0.018697234 -0.078257255 0.16948944 0.16922605 0.06806865 0.07231168 0.12501696 0.023633635 -0.3259647 -0.20818795 0.08007242 -0.09216564 -0.0012164034 -0.1884418 0.07229279 -0.024725623 0.14088869 -0.10638632 0.010042078 0.10741452 -0.101808816 -0.17183296 -0.18976133 -0.0065146866 -0.10610434 0.07087359 -0.040858988 0.015496103 -0.043470003 -0.077042714 0.10828433 0.007896396
17 0.033081323 0.1722923 0.01859032 -0.11495036 0.01952149 0.07900572 -0.008321912 0.1380037 -0.048872266 -0.0017784014 0.0128950225 -0.054566406 -0.12756541 0.073632255 0.048171893 -0.18071146 0.074288264 -0.047937512 0.11275987 -0.15701538 0.011737656 -0.11985089 -0.1923758 0.07056229 -0.047068723 -0.18077101 -0.11936921 -0.017276809 0.08843717 -0.10656156 0.008398059 0.14933836 -0.19016415 0.21955055 0.19079106 -0.031231439 0.05331781 -0.0021798573 -0.12363854 -0.17089126 0.0010550617 0.083906636 -0.14677516 0.056319382 -0.09971149 0.21904746 -0.1367595 0.19602697 -0.06021735 -0.08202721 0.1060983 0.1275012 0.21381333 -0.062134072 -0.07452448 -0.09449018 0.06279985 0.016284907 -0.022062652 -0.036288 0.10325579 0.069677815 0.0033077938 0.16785592 0.13630705 -0.016151851 -0.027616315 -0.012415328 0.10659841 0.091854215 -0.029499179 -0.06265568 -0.053565342 -0.2102739 0.09364158 0.16892213 -0.15531416 -0.1251176 0.14609985 0.09801297 -0.13474093 -0.010196273 0.0071567204 0.1879142 0.03316103 -0.14523534 0.10492419 -0.08435045 0.0051058666 -0.21886928 -0.029194374 -0.083482645 -0.11948787 -0.047129735 0.075463146 0.15600264 -0.026017964 -0.072565444 0.17524521 0.16514713 0.074520245 0.06867002 0.1263118 0.028258795 -0.32329097 -0.21351585 0.07640595 -0.09849908 -0.004477197 -0.1874989 0.074459895 -0.021956248 0.15423596 -0.10152898 0.0032036798 0.10919746 -0.09666488 -0.17409024 -0.20210397 -0.008987719 -0.10601366 0.071920834 -0.048779134 0.018705761 -0.041605122 -0.07557445 0.10905515 0.0015526598
21 0.02738954 0.1769822 0.03252262 -0.111667395 0.015759666 0.07621311 -0.003879788 0.13518764 -0.041690644 -0.0026421344 -0.0011827021 -0.053297255 -0.14117436 0.072377525 0.043886032 -0.1719851 0.078949384 -0.043138918 0.1121317 -0.15693815 0.010648548 -0.13696738 -0.1931233 0.063883945 -0.049512073 -0.17877021 -0.11985595 -0.026106277 0.10771056 -0.10758813 0.017594252 0.14020635 -0.19239865 0.21997605 0.18710738 -0.02272506 0.06263498 -0.014496668 -0.12984999 -0.16330726 0.0039746016 0.08601272 -0.15013395 0.06902064 -0.09836048 0.2294179 -0.13523166 0.18829164 -0.058563743 -0.071547315 0.11006028 0.12675282 0.21127096 -0.060589533 -0.06174096 -0.088725396 0.07687492 0.016067117 -0.019916613 -0.02334579 0.10146439 0.071106784 -0.006673637 0.16919255 0.1310174 -0.027841287 -0.035527665 -0.008670097 0.11416407 0.0956536 -0.024244558 -0.051269617 -0.04513857 -0.22227037 0.09590177 0.17587763 -0.138944 -0.113015994 0.128167 0.10322869 -0.14280309 -0.0041835755 0.022851145 0.18097694 0.035924755 -0.15036061 0.105144985 -0.08647636 0.012549885 -0.21878716 -0.021647397 -0.09675776 -0.11081444 -0.036989406 0.08224685 0.14636797 -0.027785452 -0.067617364 0.1761711 0.17331454 0.07365191 0.072467774 0.1256576 0.02348265 -0.32627845 -0.21803153 0.08795358 -0.09033666 -0.012159235 -0.18181215 0.07007078 -0.016171752 0.1488242 -0.097814724 0.007150409 0.094748534 -0.09361272 -0.16879436 -0.18645662 -0.005860663 -0.109323494 0.07455291 -0.04830796 0.015397031 -0.050015897 -0.07701687 0.1155006 -0.004087786
103 0.02373876 0.16704728 0.020012004 -0.1132183 0.011404703 0.0729086 0.006310588 0.13593596 -0.054719403 -0.0031670798 0.009377144 -0.042830367 -0.1512931 0.07668341 0.04416247 -0.16662969 0.07670013 -0.046400692 0.122674175 -0.14234781 0.018629251 -0.12927847 -0.18473138 0.061669685 -0.03698291 -0.19190457 -0.1184905 -0.018911913 0.09429155 -0.10032903 0.02199153 0.13066918 -0.2025899 0.21191585 0.18294844 -0.0303652 0.060921773 -0.00844857 -0.12843774 -0.15822195 0.0005301375 0.08409602 -0.15095693 0.057201862 -0.08303082 0.21322127 -0.12585202 0.19585085 -0.043064978 -0.06857918 0.10700064 0.12663381 0.20879336 -0.05791487 -0.06730185 -0.09529747 0.06825133 0.014386813 -0.012413578 -0.018257812 0.096105136 0.07090095 -0.0022856353 0.1654044 0.14387757 -0.018187186 -0.03712227 -0.009455472 0.12680557 0.09565687 -0.022113495 -0.057608925 -0.045139126 -0.21589373 0.08434264 0.17771985 -0.14051285 -0.12320839 0.1400638 0.11186897 -0.12623972 -0.010993597 0.01343353 0.18825735 0.03547547 -0.14550745 0.10019902 -0.08202092 0.014536457 -0.21405329 -0.023409877 -0.08351927 -0.119107716 -0.04723942 0.069033526 0.15361719 -0.030274412 -0.060837474 0.17365548 0.17081782 0.06947611 0.07295041 0.12314624 0.034478348 -0.3105673 -0.21893924 0.07869597 -0.09809831 -0.0063162297 -0.1885972 0.08534385 -0.006792801 0.13178168 -0.09139207 0.000977341 0.10125117 -0.08170771 -0.16473976 -0.18416166 -0.0020866974 -0.11470975 0.056266304 -0.046725128 0.021425871 -0.045835093 -0.07295943 0.10397117 -0.0018815313
6 0.032042213 0.17879015 0.017803663 -0.109329075 0.0124985175 0.07907091 -0.011739212 0.12913565 -0.039917596 0.0003464068 0.010203647 -0.055332206 -0.13818952 0.07647944 0.051040243 -0.17649896 0.07915366 -0.048675686 0.10918212 -0.15381454 0.00865078 -0.1218624 -0.19715326 0.06356066 -0.041977182 -0.16850221 -0.13292018 -0.019380787 0.1160859 -0.11627482 0.019354356 0.15378872 -0.18553108 0.22778757 0.1874082 -0.027154597 0.05440709 -0.014685 -0.12851389 -0.15864414 0.004584652 0.07797961 -0.1564764 0.057903543 -0.1000538 0.2263884 -0.13941486 0.18931583 -0.05679163 -0.07260673 0.10821298 0.13156335 0.215639 -0.05586337 -0.06810528 -0.10508696 0.063615926 0.008287333 -0.019814542 -0.030776428 0.099918924 0.07193435 0.0029130406 0.17285712 0.1280119 -0.012936878 -0.033305407 -0.0019473238 0.09807192 0.091853105 -0.019756172 -0.05021464 -0.057231855 -0.21054806 0.0913327 0.1736576 -0.15388949 -0.12312129 0.13029759 0.09703967 -0.14111888 -0.011037206 0.0013900116 0.18651071 0.031823106 -0.14742535 0.101277046 -0.075769775 0.01489569 -0.21972518 -0.02030246 -0.09201369 -0.11342469 -0.04251478 0.07257199 0.1457778 -0.01786945 -0.08408316 0.16918147 0.16155137 0.07601508 0.062820956 0.13005823 0.027408484 -0.33055574 -0.2111441 0.08448161 -0.09176864 -0.011851089 -0.18224517 0.07074131 -0.029025171 0.15950221 -0.11591907 -0.0036251682 0.100654684 -0.1090452 -0.17216517 -0.1972906 -0.0030756148 -0.11362867 0.08140094 -0.038849015 0.013571342 -0.04091121 -0.08081562 0.11272836 -0.0035375105
151 0.029516552 0.17040353 0.017871853 -0.12507334 0.010652021 0.06733867 -0.009616007 0.13039547 -0.04970719 -0.0074840263 0.014617888 -0.04922279 -0.14514738 0.07375387 0.03853216 -0.17766716 0.073838174 -0.05027009 0.114603564 -0.15242556 0.024743076 -0.13058887 -0.18287201 0.0769889 -0.038445164 -0.19075048 -0.118029885 -0.01890718 0.09737842 -0.10522704 0.020724399 0.14334247 -0.18491155 0.21828029 0.18512014 -0.030952532 0.04878266 -0.010049659 -0.13818258 -0.15512508 -0.008829961 0.083355166 -0.14510132 0.05857542 -0.09388968 0.2228792 -0.13445455 0.1989994 -0.059583254 -0.07203926 0.10236504 0.13403991 0.21368559 -0.0576931 -0.067989424 -0.09060575 0.06737477 0.016487297 -0.021470001 -0.019856531 0.096365124 0.067910194 0.005954733 0.1638273 0.14628297 -0.027141735 -0.032486133 -0.012355706 0.11133741 0.0868302 -0.03298977 -0.054255687 -0.045215715 -0.2215714 0.08739685 0.17781909 -0.15414844 -0.12559652 0.13805446 0.10148583 -0.12305276 -0.013149047 0.014118927 0.18623841 0.036294304 -0.15203787 0.11190413 -0.08158693 0.0125239175 -0.21080288 -0.028297024 -0.090739615 -0.11685131 -0.04577445 0.0816964 0.15260808 -0.027553301 -0.069528155 0.18288542 0.17822537 0.065090805 0.07250533 0.124571934 0.022030208 -0.32989335 -0.20617571 0.07304509 -0.09263537 -0.010109021 -0.19343951 0.07642066 -0.018981807 0.15049644 -0.09577697 0.012906862 0.108443886 -0.087863386 -0.1781517 -0.19037428 -0.009794721 -0.120550565 0.06189504 -0.049758665 0.017588643 -0.04173446 -0.07581167 0.10576333 -0.00024731393
18 0.025067188 0.17319687 0.026169047 -0.11721499 0.010800963 0.07901061 -0.004142868 0.1444195 -0.047741607 -0.0049710497 -0.0019071054 -0.045604866 -0.13968663 0.07145844 0.04750285 -0.18302126 0.0775472 -0.05260522 0.11398493 -0.1536322 0.005606938 -0.1351934 -0.1928898 0.07748917 -0.051509257 -0.18494615 -0.11661853 -0.028210906 0.09588491 -0.112018034 0.013694585 0.14435045 -0.18948798 0.22151382 0.19280902 -0.027277447 0.056760773 -0.0062238714 -0.13329953 -0.16146944 0.00032589232 0.08698505 -0.16050065 0.06807955 -0.10501242 0.22169974 -0.1308384 0.19228484 -0.058753196 -0.0840962 0.10883427 0.13416226 0.21097338 -0.052293546 -0.07391864 -0.09159987 0.078648135 0.02534179 -0.01484451 -0.02581205 0.103617646 0.07309975 0.005325595 0.17469 0.14423998 -0.020121925 -0.03553937 -0.01579963 0.11780479 0.09227695 -0.030253837 -0.059271574 -0.052126706 -0.22460978 0.09544585 0.16921344 -0.15339372 -0.12536682 0.13941227 0.09480344 -0.14704016 -0.0065053147 0.018471928 0.18370096 0.0317082 -0.15243937 0.108712554 -0.090209216 0.0071906373 -0.22878927 -0.026395893 -0.092761084 -0.118122265 -0.033938255 0.089336365 0.15031236 -0.031620957 -0.06844243 0.18405098 0.17430718 0.072582334 0.074875176 0.12988132 0.020842526 -0.32323918 -0.20841122 0.085485846 -0.10083952 -0.014083943 -0.1918796 0.071416624 -0.019104045 0.1402937 -0.09715303 0.008635507 0.10071006 -0.10012069 -0.16783415 -0.1925073 -0.01002603 -0.10510905 0.073351406 -0.051454708 0.022751058 -0.045243673 -0.07161774 0.10941602 -0.0004955107
208 0.030218551 0.1788832 0.02758857 -0.11384088 0.010306572 0.06921336 -0.00818891 0.14133312 -0.0399304 -0.0058219507 0.00041550957 -0.058533877 -0.14624046 0.08385223 0.04365273 -0.18297666 0.0843462 -0.04589618 0.11893345 -0.15948574 0.012708987 -0.13879578 -0.19826224 0.0726174 -0.041985326 -0.1943417 -0.1223484 -0.020006604 0.10445143 -0.11517917 0.011478607 0.14432313 -0.196216 0.22797188 0.19195391 -0.026262116 0.048163358 -0.009438812 -0.13214497 -0.15854272 0.004540297 0.0906693 -0.15786377 0.07245589 -0.104781784 0.23133384 -0.13532037 0.2006748 -0.05838491 -0.07725868 0.108224496 0.12572414 0.21780431 -0.056367848 -0.06624756 -0.09364091 0.07984794 0.020923281 -0.021802844 -0.02723604 0.10996441 0.07941152 -0.008265248 0.17456698 0.14714396 -0.025756383 -0.03552138 -0.004141772 0.112152606 0.098939955 -0.024916058 -0.059472498 -0.051560603 -0.22325747 0.08456644 0.16955112 -0.15579972 -0.1316045 0.14702602 0.093633145 -0.13586882 -0.00986586 0.011541239 0.18746357 0.037549887 -0.15542415 0.11049407 -0.08092617 0.007023145 -0.22750865 -0.027315924 -0.09252847 -0.10712766 -0.03739036 0.08280253 0.158575 -0.021410696 -0.07016415 0.17231458 0.1800531 0.07394608 0.072767615 0.12403789 0.030707035 -0.32934088 -0.20964797 0.08459394 -0.09801232 -0.009633213 -0.19382413 0.08455446 -0.020408126 0.14196444 -0.101332575 0.013086587 0.11000999 -0.10071613 -0.1670267 -0.20021239 0.0018430728 -0.10671177 0.072710514 -0.05243586 0.014072476 -0.049996752 -0.08568019 0.11661116 0.00074813503
5 0.020134464 0.18133415 0.030208852 -0.11305915 0.020482795 0.08131164 -0.0021417532 0.14341763 -0.041315492 0.0041572484 0.014823183 -0.04222756 -0.14136666 0.07123984 0.043074984 -0.18646547 0.08106881 -0.05174448 0.108807676 -0.15172583 0.0109203635 -0.13542533 -0.19058877 0.07709277 -0.048079874 -0.19251136 -0.12792902 -0.019441348 0.10320392 -0.114031024 0.011121536 0.14678793 -0.19381723 0.22057764 0.19804011 -0.023242733 0.057234224 -0.006350685 -0.12688649 -0.15994908 0.0045575807 0.080676414 -0.16087358 0.07032472 -0.09582611 0.24035844 -0.13509098 0.19642328 -0.052696016 -0.085674606 0.10233697 0.13495354 0.22290686 -0.058201768 -0.07374041 -0.10213317 0.07851235 0.0151631925 -0.026337976 -0.021603884 0.10980766 0.07385912 0.00092724245 0.17057368 0.1486218 -0.02512488 -0.03243056 -0.015815688 0.11533527 0.089767374 -0.021538505 -0.06179638 -0.04560783 -0.21872348 0.09999435 0.16671234 -0.15283084 -0.13012955 0.1436365 0.102379136 -0.13743602 -0.0104084425 0.011410351 0.18464585 0.037225485 -0.14869417 0.09964821 -0.08240445 0.0075893034 -0.2173236 -0.025297865 -0.08742425 -0.12215418 -0.042518295 0.084804274 0.15639289 -0.025955278 -0.07348242 0.17806046 0.17605914 0.06424137 0.072402604 0.13182528 0.027430324 -0.3234383 -0.21127379 0.07717048 -0.09803043 -0.00630904 -0.1953204 0.087310426 -0.02529448 0.14149994 -0.09967241 -0.0019244938 0.10692803 -0.096377485 -0.16394173 -0.19336642 -0.0019502917 -0.11526207 0.06177657 -0.051635213 0.013239641 -0.042885672 -0.0845405 0.115095995 0.0044142897
65 0.03374711 0.17066792 0.022362325 -0.12304402 0.0204452 0.07003 -0.0042417394 0.13800153 -0.048597086 -0.0077641136 0.0016222843 -0.04802647 -0.14306866 0.080678195 0.036490515 -0.17681175 0.08112151 -0.043061316 0.113545 -0.15281157 0.020066176 -0.13922858 -0.18698543 0.061922237 -0.043957785 -0.18457215 -0.11482672 -0.015739126 0.09773643 -0.103186384 0.012120893 0.13726562 -0.19574344 0.22781673 0.19405349 -0.029281039 0.06316738 -0.004454435 -0.13349673 -0.16159293 -0.00022983302 0.08268866 -0.16617943 0.06798422 -0.10001071 0.23142059 -0.13241835 0.19793117 -0.058058597 -0.07408411 0.09759838 0.13443263 0.2082098 -0.060625087 -0.068632185 -0.100349635 0.07933418 0.021047918 -0.015453798 -0.026366115 0.10305554 0.08168561 0.000838621 0.16844147 0.14570276 -0.018786704 -0.039589766 -0.010847314 0.118987046 0.08808262 -0.025304357 -0.05796973 -0.051713385 -0.22657347 0.09421261 0.17056462 -0.1462741 -0.12533502 0.14148436 0.10089633 -0.13741837 -0.0015678493 0.014899093 0.17862159 0.043662127 -0.15812175 0.10111239 -0.08701368 0.004132974 -0.22003035 -0.01836497 -0.08933602 -0.11569826 -0.036310457 0.08260849 0.15537646 -0.029949067 -0.07193647 0.17685579 0.17076808 0.07251486 0.07091872 0.1228941 0.025139362 -0.3282245 -0.22048685 0.08502148 -0.09921109 -0.008915944 -0.1868334 0.08847916 -0.017682547 0.13513693 -0.10118838 0.008516672 0.09894686 -0.093487576 -0.16671912 -0.18874156 -0.010124694 -0.10751974 0.06572176 -0.045297805 0.020443121 -0.045866176 -0.07486816 0.108866245 0.0054703807
188 0.01950447 0.1795603 0.019677944 -0.1177238 0.007972213 0.06592311 -0.010007759 0.14943811 -0.046222176 -0.000101719896 -0.005139431 -0.05540738 -0.14310452 0.07055406 0.045745607 -0.1818443 0.081543826 -0.046116456 0.107525 -0.1468125 0.019141862 -0.12977025 -0.18906668 0.06568973 -0.042427603 -0.18578148 -0.12277599 -0.027277581 0.09319551 -0.09944357 0.009602264 0.14197567 -0.19374602 0.2314398 0.18963845 -0.032635685 0.061986562 -0.0059713335 -0.12935153 -0.1555042 -0.004963497 0.08263349 -0.15875132 0.065896705 -0.10550949 0.22326566 -0.13032883 0.20438418 -0.05627381 -0.07880797 0.10931211 0.1324744 0.20875944 -0.06389064 -0.06640727 -0.095217764 0.07521757 0.026868803 -0.012616228 -0.020055205 0.1058064 0.07850278 0.002501497 0.16271971 0.14599654 -0.022099555 -0.035854045 -0.0101845665 0.11900777 0.09258341 -0.031133808 -0.05891002 -0.04554504 -0.22309308 0.08267338 0.16311853 -0.15514131 -0.12925665 0.1346386 0.10034321 -0.13982214 -0.0049020397 0.009610009 0.18169346 0.026593126 -0.15581343 0.109448366 -0.078464724 0.009155532 -0.22753257 -0.017719718 -0.08891848 -0.113923654 -0.03833577 0.074185506 0.14783126 -0.025169767 -0.06535774 0.17193188 0.17677076 0.08108028 0.062756315 0.1231139 0.026809063 -0.32275763 -0.21525465 0.077689715 -0.09521253 -0.0034773445 -0.18104695 0.071801774 -0.019205896 0.14190648 -0.106633775 -0.0021796443 0.11199372 -0.10104852 -0.1793175 -0.19515418 -0.010712678 -0.10491005 0.07268474 -0.053391084 0.012201893 -0.04865858 -0.07171914 0.1129124 -0.0028896302
324 0.035172705 0.1800685 0.025151752 -0.11417396 0.026618041 0.07735952 -0.00055168546 0.14736679 -0.04730516 -0.0091659445 0.009470829 -0.044877052 -0.13669837 0.080770954 0.04371262 -0.18668376 0.071316965 -0.04431697 0.1169064 -0.15372512 0.010845571 -0.13247482 -0.19687712 0.065519534 -0.03973405 -0.18072125 -0.13005798 -0.020428192 0.09705359 -0.113538004 0.014186943 0.14138739 -0.19625427 0.23321776 0.19026083 -0.021083852 0.06439789 -0.008898852 -0.13397515 -0.17089297 0.008481448 0.08791369 -0.16268545 0.06900269 -0.10815383 0.22967884 -0.13310422 0.20078078 -0.063082226 -0.072680034 0.10978826 0.13349089 0.20663798 -0.06296743 -0.07105143 -0.10358457 0.07884556 0.018710913 -0.027838709 -0.026696067 0.107907265 0.0723504 -0.007905849 0.16488062 0.1378272 -0.013600523 -0.034451924 -0.009648227 0.1205948 0.08633145 -0.035455275 -0.052010674 -0.047168065 -0.22252992 0.09360305 0.17564818 -0.14529799 -0.12519543 0.13954598 0.11154679 -0.14316502 -0.01623679 0.020595793 0.18096876 0.029508272 -0.15304585 0.11149302 -0.081030965 0.020200387 -0.21659222 -0.032364503 -0.08752116 -0.12201334 -0.046656266 0.077138826 0.15765712 -0.031452775 -0.07256474 0.17209458 0.17410603 0.070812 0.07648887 0.11955113 0.034081645 -0.33184674 -0.22584248 0.082988486 -0.09060747 -0.0027604767 -0.18562126 0.08882297 -0.028873496 0.14964631 -0.09945691 -0.0052801752 0.095689595 -0.099994965 -0.17665972 -0.19675186 -0.0077506877 -0.11759678 0.06807512 -0.052645292 0.014018849 -0.041347545 -0.07735861 0.11997924 -0.0017556418
186 0.022340422 0.17874263 0.020301482 -0.12204612 0.017518358 0.07464831 0.0016585835 0.1325312 -0.041827414 0.00262769 0.006440103 -0.056564674 -0.14679135 0.07676957 0.047559675 -0.17662725 0.07508384 -0.044189364 0.1137646 -0.16119868 0.012838734 -0.14090456 -0.19790365 0.06622595 -0.049170025 -0.18605217 -0.12874736 -0.026159113 0.09591822 -0.11155869 0.015031485 0.14286385 -0.18917294 0.21602811 0.19398636 -0.029021094 0.054300822 -0.01149827 -0.13382535 -0.17002247 0.003193941 0.096494816 -0.1625832 0.06947664 -0.10910086 0.2344435 -0.12913676 0.18876229 -0.062841795 -0.07246672 0.108059354 0.13333628 0.21178278 -0.054821156 -0.07483919 -0.0983848 0.08030132 0.018871684 -0.02420769 -0.028663049 0.10565052 0.07386546 -0.003966027 0.17533866 0.14326535 -0.019392392 -0.0340764 -0.021021396 0.117185324 0.08465009 -0.039705332 -0.05160277 -0.04682297 -0.22668862 0.08956434 0.18022282 -0.147803 -0.11735251 0.14940113 0.11242741 -0.14484249 -0.013023568 0.018701233 0.19197191 0.035763796 -0.15823966 0.11761903 -0.08193745 0.008545357 -0.21542664 -0.02821667 -0.09716376 -0.11350387 -0.041674104 0.08600388 0.1520834 -0.026772669 -0.070795275 0.18501352 0.17139949 0.07546138 0.0628757 0.12383814 0.026810817 -0.31837577 -0.22521923 0.08346175 -0.10131609 -0.011938863 -0.1868415 0.081970386 -0.017183317 0.13728534 -0.1021608 0.01124307 0.10519606 -0.09439213 -0.17324017 -0.19541673 -0.0047106408 -0.110292606 0.06530391 -0.05213664 0.014899602 -0.047981493 -0.07703841 0.11661801 0.0056554843
245 0.033234593 0.1788447 0.027801264 -0.12405858 0.01696607 0.07040629 -0.0052126334 0.13483085 -0.05025997 -0.00075694866 0.005909648 -0.048460864 -0.15245716 0.0808898 0.037653096 -0.18265842 0.07370128 -0.05370465 0.109527044 -0.1571792 0.013182937 -0.12971453 -0.18842493 0.06939708 -0.041328385 -0.18881963 -0.11783587 -0.024792258 0.098879926 -0.1157313 0.010905887 0.14530824 -0.19867483 0.22785449 0.19364002 -0.033858225 0.049056448 -0.008199818 -0.13075157 -0.16084895 0.008104448 0.09076176 -0.16166721 0.05654012 -0.10693833 0.23691548 -0.14414066 0.19385932 -0.06484849 -0.084737055 0.1113991 0.13263994 0.21162097 -0.06237997 -0.06600307 -0.100613795 0.075773254 0.021400604 -0.01994426 -0.028274119 0.10197437 0.071383744 0.00014928143 0.17227584 0.14915785 -0.023481753 -0.041638203 -0.019195186 0.11833703 0.08995111 -0.03209421 -0.061251093 -0.048724994 -0.21982825 0.082019396 0.16780943 -0.15359053 -0.12118686 0.13776769 0.10887276 -0.14468883 -0.004156018 0.01904588 0.19418415 0.035705462 -0.14440823 0.10743666 -0.08522449 0.004168731 -0.21860388 -0.019686248 -0.08910459 -0.11542445 -0.043689284 0.07604755 0.16123249 -0.034722447 -0.07022511 0.18420598 0.1625941 0.06819926 0.07036707 0.11747451 0.018433696 -0.3222721 -0.2044196 0.07715676 -0.09361946 -0.012982654 -0.1814394 0.08845278 -0.026940348 0.14236945 -0.09461171 0.0022374846 0.09992765 -0.09667627 -0.16909306 -0.18728064 -0.01049748 -0.10857735 0.05779392 -0.04969505 0.02482656 -0.042777292 -0.07817442 0.111551814 -0.006223209
24 0.024309538 0.17095794 0.01948312 -0.11476124 0.027608136 0.08079625 0.0020735585 0.13379733 -0.047485735 -0.0058072456 -0.00021199942 -0.05554535 -0.13735364 0.082382075 0.0435619 -0.17791466 0.07931907 -0.044511624 0.1150522 -0.15377223 0.010892322 -0.13031334 -0.18892042 0.05946115 -0.042435747 -0.1883793 -0.12868296 -0.024403317 0.10195214 -0.11970276 0.008187462 0.15357699 -0.18896541 0.22673443 0.19766062 -0.0202411 0.059062522 -0.010558139 -0.13109821 -0.1591983 0.0037161561 0.08377161 -0.15340172 0.05669976 -0.10535621 0.22218336 -0.13139477 0.19832304 -0.060749292 -0.078918174 0.11476902 0.12750837 0.21145262 -0.059673782 -0.060352087 -0.09019153 0.08047873 0.022849955 -0.02785622 -0.01576616 0.092836685 0.07933322 -0.0005311593 0.17120661 0.13728051 -0.022429585 -0.04060188 -0.008740578 0.11615195 0.09707469 -0.03397307 -0.0508154 -0.05196343 -0.2223919 0.08067293 0.17140216 -0.14034146 -0.11619994 0.13709678 0.10161863 -0.1392136 -0.020273592 0.012295721 0.18889758 0.030944139 -0.15718298 0.09900515 -0.090329096 0.01253538 -0.2163079 -0.0262115 -0.0833526 -0.11037459 -0.035444897 0.072192 0.157566 -0.017778141 -0.06378589 0.17851457 0.16720308 0.06936527 0.07355022 0.12603445 0.020482296 -0.31683677 -0.21831612 0.08026108 -0.09086557 -0.0073943106 -0.18964767 0.08019679 -0.017510524 0.14500618 -0.105708666 0.008934767 0.10109674 -0.085834034 -0.1702757 -0.1836254 -0.005193537 -0.11302313 0.07559827 -0.043086648 0.014347658 -0.037549205 -0.075810276 0.11777574 -0.0054292222
323 0.02496749 0.17001587 0.022718856 -0.10553733 0.010390472 0.06405243 -0.0007929294 0.13055995 -0.046676695 0.004606673 0.0020003326 -0.049939346 -0.13409123 0.07953485 0.037553724 -0.16501726 0.07785515 -0.035319094 0.10790268 -0.14688449 0.01890033 -0.13223124 -0.19086896 0.06585014 -0.0428591 -0.17889075 -0.122946754 -0.014779629 0.098537706 -0.10794417 0.018189717 0.13635035 -0.19702052 0.21086112 0.1896834 -0.021861888 0.056237265 -0.009683729 -0.1296272 -0.15386876 -0.005192229 0.08310068 -0.15655251 0.061385892 -0.09322292 0.22569928 -0.13287923 0.19018066 -0.058072302 -0.07080386 0.10536154 0.13136283 0.215823 -0.05692828 -0.066765755 -0.09531804 0.06930155 0.01112771 -0.015379348 -0.032151107 0.10292926 0.06717025 -0.009170317 0.16967483 0.13928767 -0.027954059 -0.024863455 -0.012154619 0.11655564 0.099081255 -0.024493972 -0.04546072 -0.050490335 -0.22520891 0.089825794 0.17905611 -0.1519105 -0.13089688 0.1375681 0.10423976 -0.13701063 -0.011033428 0.01086081 0.19180113 0.038137965 -0.14118169 0.10345637 -0.0918113 0.010807227 -0.22343646 -0.025067773 -0.090061486 -0.119938776 -0.038929123 0.07264072 0.1534113 -0.03314344 -0.071347885 0.17488994 0.16734758 0.07155373 0.07176427 0.1264646 0.022071088 -0.31022555 -0.22234645 0.07381654 -0.101853676 -0.0051314733 -0.18491642 0.07123568 -0.023938667 0.14312954 -0.10188775 0.0031652607 0.102416076 -0.09371696 -0.16902833 -0.18714297 -0.0035108684 -0.1119424 0.07009631 -0.045290336 0.012372639 -0.039290663 -0.07423918 0.102901265 -0.0055895695
241 0.035083473 0.18413725 0.019680627 -0.11937544 0.012311197 0.07571105 -0.013719117 0.14531578 -0.04116599 -0.012558051 0.0046439734 -0.06544048 -0.13727474 0.06532416 0.039610364 -0.17405985 0.07078777 -0.054496706 0.11304285 -0.15556951 0.000109458655 -0.13217945 -0.19006737 0.053268254 -0.04856446 -0.17259565 -0.12202431 -0.024041256 0.10935885 -0.10108415 0.018000463 0.1514373 -0.19195257 0.22017033 0.1852805 -0.029900033 0.043084603 -0.003664651 -0.13182169 -0.16591777 0.0028426496 0.07463372 -0.14196509 0.05583786 -0.11024841 0.23213379 -0.1301267 0.1771845 -0.063143276 -0.080277786 0.11873556 0.13249838 0.2071163 -0.07915059 -0.07158667 -0.101083495 0.06545525 0.015342778 -0.026044957 -0.028036369 0.09540273 0.077878445 0.0076165614 0.16036648 0.13611427 -0.016412472 -0.04388565 -0.009642618 0.098543845 0.085539594 -0.019626651 -0.064745404 -0.05111501 -0.21234635 0.09564189 0.162678 -0.14921582 -0.11973334 0.13362782 0.0836691 -0.14235702 -0.017812343 0.009167628 0.18356252 0.035946798 -0.14267729 0.09131997 -0.089950256 0.0067732944 -0.22625306 -0.03230108 -0.09544029 -0.10414318 -0.026493179 0.07729189 0.15687665 -0.030831551 -0.08124505 0.17069365 0.16397543 0.076879546 0.06539478 0.139221 0.03529145 -0.31198704 -0.21001573 0.08211897 -0.08611792 0.00038870046 -0.18802491 0.08601835 -0.028776087 0.15888591 -0.11754492 0.0037465424 0.09462615 -0.107970044 -0.17580567 -0.20484468 -0.013437903 -0.11666921 0.07823469 -0.029060418 0.031045843 -0.04094177 -0.09037014 0.119185895 -0.0049312133
3 0.03324696 0.17891063 0.011492 -0.12224532 0.023493826 0.077444986 0.0005468991 0.13563935 -0.048587702 -0.007258429 0.011574625 -0.058171578 -0.13575466 0.071509175 0.037004948 -0.18529017 0.08759109 -0.05048728 0.1123692 -0.16627687 0.015540106 -0.1348708 -0.20239635 0.062392782 -0.044605706 -0.18678214 -0.1337235 -0.029331734 0.094880074 -0.115137026 0.015991248 0.15846185 -0.19333117 0.21972816 0.19952576 -0.031713713 0.058674663 -0.008658037 -0.13806528 -0.16194002 -0.0016616306 0.085889 -0.15959945 0.07680721 -0.09754521 0.23239541 -0.1420651 0.19463694 -0.05110951 -0.08081159 0.10780974 0.12887406 0.21453995 -0.057895645 -0.066326335 -0.09686557 0.07460476 0.012102234 -0.023034295 -0.03164766 0.113618925 0.07427833 -0.00568753 0.17713356 0.15169911 -0.016183484 -0.039153103 -0.0056176996 0.114912614 0.09195755 -0.025838142 -0.056381635 -0.052818425 -0.23281711 0.09021694 0.1742161 -0.15605144 -0.12118031 0.14943916 0.09708216 -0.13634071 -0.014054937 0.020470064 0.19121501 0.03882593 -0.15941754 0.11266695 -0.09304429 0.01245946 -0.22941506 -0.030178169 -0.09252728 -0.110971436 -0.045375187 0.0844317 0.158413 -0.028628148 -0.06944173 0.18274029 0.1723522 0.07188717 0.07206071 0.13419402 0.026266387 -0.3256274 -0.21968538 0.070898935 -0.09793382 -0.0048522973 -0.17962143 0.08052155 -0.023503412 0.14080058 -0.098524936 0.0059432965 0.099038936 -0.098701015 -0.17467901 -0.20048398 -0.008778656 -0.10772912 0.06458116 -0.051124036 0.014404211 -0.044282973 -0.087858476 0.118292905 -0.0011762319
28 0.03683031 0.18380187 0.026968636 -0.12449594 0.02482122 0.07174022 -0.008645509 0.13833888 -0.041439738 -9.025462e-05 2.048297e-05 -0.05078623 -0.13815008 0.08169039 0.04102804 -0.18458322 0.07599061 -0.0401282 0.119724095 -0.16153276 -0.0016346778 -0.13073374 -0.18565476 0.064316966 -0.042145126 -0.19814086 -0.13323252 -0.02705198 0.102811165 -0.101603165 0.0036679448 0.14333943 -0.20072863 0.23106006 0.20394239 -0.018038398 0.05483167 -0.0056149713 -0.12633073 -0.16243146 -0.0011373712 0.080086015 -0.16224962 0.06999284 -0.1061744 0.2416025 -0.12974507 0.1933425 -0.06143152 -0.07816032 0.110765845 0.13169637 0.21034516 -0.061985783 -0.06742541 -0.10116959 0.07303529 0.008549236 -0.018502153 -0.027265677 0.100748524 0.07994837 -9.963554e-05 0.16867226 0.15026425 -0.019703066 -0.03877751 -0.0057532773 0.123457424 0.09776119 -0.018967805 -0.05186999 -0.046959914 -0.22394331 0.08848228 0.16695045 -0.1570558 -0.13043758 0.13529544 0.099578135 -0.1327 -0.020856937 0.012129534 0.19594003 0.042637162 -0.14557411 0.10508797 -0.08718046 0.021426637 -0.22717956 -0.023753947 -0.09805558 -0.123153135 -0.035658613 0.080470264 0.15980265 -0.029655986 -0.076338224 0.17667362 0.16380149 0.07157891 0.06951333 0.12799798 0.023826038 -0.3252674 -0.21129534 0.074706964 -0.09705874 -0.0117327785 -0.18456942 0.087567516 -0.031419255 0.14334945 -0.09373435 0.009042299 0.0937395 -0.09786017 -0.17040163 -0.18699373 -0.015515382 -0.1086349 0.06956906 -0.047633648 0.010213192 -0.05370716 -0.072597206 0.114271075 -0.0055916198
59 0.02945808 0.1661796 0.018857207 -0.11789942 0.0071689584 0.072511636 -0.007874802 0.14313048 -0.048755597 -0.0017052529 0.011293787 -0.05139684 -0.14218976 0.07137829 0.04490755 -0.18207411 0.07154056 -0.043888245 0.10618925 -0.15754193 0.0132873105 -0.13686739 -0.18189104 0.057520688 -0.03805529 -0.19427314 -0.12106293 -0.012672565 0.09253816 -0.12087271 0.013633002 0.15361667 -0.19804658 0.2192919 0.19558342 -0.017461956 0.057511035 -0.004005507 -0.1294571 -0.1587049 -0.004488751 0.09018788 -0.16164772 0.06519228 -0.09931491 0.24074066 -0.14895777 0.20379129 -0.056726377 -0.079403006 0.11273095 0.14186904 0.21336891 -0.06908183 -0.07648473 -0.1069159 0.07287607 0.02099562 -0.019089967 -0.019832956 0.103732176 0.075216256 0.003972405 0.17361842 0.15266588 -0.029261863 -0.035077572 -0.02404407 0.12262839 0.085103355 -0.024985276 -0.05663213 -0.044888373 -0.22885495 0.09414639 0.17226338 -0.16306317 -0.12628713 0.14811665 0.10548648 -0.14756139 -0.017677885 0.019584196 0.18927011 0.03497051 -0.1514508 0.10820286 -0.09220639 0.018246133 -0.22645803 -0.019443491 -0.09472148 -0.11836589 -0.039158747 0.08572015 0.15840425 -0.024702167 -0.06560752 0.1850927 0.17478676 0.0755958 0.078839295 0.12256706 0.020749439 -0.33078074 -0.22483018 0.07369932 -0.099265456 -0.008946851 -0.1826743 0.076011434 -0.01422953 0.14191245 -0.10403366 -0.00054326997 0.099377304 -0.0872147 -0.18167672 -0.19650097 -0.0073380466 -0.114157945 0.06812875 -0.05553661 0.013782248 -0.04941687 -0.08259372 0.106854856 0.006532041
79 0.028643588 0.18636878 0.013314603 -0.110945605 0.016821247 0.08672331 0.0006923742 0.14061433 -0.041111063 -0.002734038 0.003818833 -0.05719467 -0.14606638 0.07638079 0.04625112 -0.17950457 0.07729127 -0.037137892 0.11078958 -0.16089733 0.010184832 -0.13383386 -0.19260256 0.06406489 -0.04158904 -0.19432887 -0.12535031 -0.027955102 0.09467934 -0.11182187 0.011665678 0.13828927 -0.19830123 0.22283751 0.19850388 -0.027725419 0.053013153 -0.01850342 -0.12661621 -0.16721806 0.0067139184 0.08891469 -0.16317666 0.07177264 -0.100228466 0.22925869 -0.13485509 0.19934843 -0.05661367 -0.0716445 0.11083575 0.13069141 0.21834937 -0.059980255 -0.07677349 -0.0925794 0.07519966 0.02140389 -0.021971062 -0.028536646 0.10003541 0.07806221 -0.0070364717 0.17611933 0.13868904 -0.017231308 -0.03188292 -0.011137703 0.11348606 0.09327188 -0.033443518 -0.0630072 -0.053040814 -0.22388431 0.089878455 0.16865237 -0.15304303 -0.11812423 0.13923572 0.10986404 -0.14038876 -0.004291596 0.02328951 0.18301864 0.03586672 -0.16046916 0.11314777 -0.09137899 0.013380406 -0.22627811 -0.033839922 -0.09745601 -0.12868306 -0.043137364 0.0802524 0.15755491 -0.019628163 -0.07194831 0.1791842 0.18593077 0.06417542 0.07213988 0.13248909 0.02372259 -0.33109838 -0.22267064 0.08363978 -0.09938333 -0.009425669 -0.19374573 0.077579126 -0.017655702 0.14141461 -0.09664119 0.00096799707 0.10741308 -0.093755536 -0.17881756 -0.19131579 -0.0059785442 -0.10869552 0.072366916 -0.0436582 0.0072045606 -0.039355457 -0.07485493 0.11675518 -0.00095274125
239 0.03504242 0.19366442 0.017531525 -0.11043778 0.013483198 0.07318863 -0.018773671 0.15072395 -0.035319336 -0.014842864 -0.0007919947 -0.06383445 -0.1438201 0.06474716 0.042387214 -0.1736284 0.080275245 -0.044059847 0.11867116 -0.16145949 -0.0019474608 -0.13610259 -0.19699292 0.06866109 -0.054366887 -0.18092108 -0.1284564 -0.029863385 0.11065497 -0.09463826 0.021241356 0.14901122 -0.18852636 0.21550757 0.18619037 -0.026073482 0.0523949 -0.0057821414 -0.13183464 -0.16901438 0.0063512833 0.07590588 -0.13860065 0.062344324 -0.11059935 0.22879876 -0.13227504 0.18696395 -0.059607495 -0.08290608 0.11880379 0.14091289 0.21437995 -0.07495092 -0.07425963 -0.08875797 0.06767699 0.008578474 -0.01722025 -0.018850809 0.10327845 0.08138124 0.0095206015 0.16533685 0.13244703 -0.019334177 -0.043443345 -0.0032643336 0.109090835 0.08656179 -0.029906498 -0.07127856 -0.05586155 -0.2167296 0.09379845 0.17437078 -0.15975453 -0.12164862 0.14118458 0.089554176 -0.13741319 -0.019467182 0.0059478194 0.18580733 0.03815913 -0.14058384 0.08909864 -0.09389805 0.008190645 -0.23541886 -0.03385888 -0.10575199 -0.107493445 -0.029184729 0.07880331 0.15703337 -0.024550151 -0.08194134 0.17425106 0.17664774 0.08431081 0.06512456 0.14408517 0.03596518 -0.32034913 -0.21020256 0.07604447 -0.08117742 -0.009392937 -0.17878681 0.07847974 -0.03155425 0.15770207 -0.12178274 0.0010516503 0.09387842 -0.11239886 -0.17880201 -0.20826982 -0.016327541 -0.11228078 0.07513224 -0.029987898 0.027572125 -0.04842283 -0.088306285 0.11809199 -0.0022934736
230 0.03286552 0.17990376 0.02629785 -0.12696241 0.014788509 0.07139457 -0.0030591465 0.13909483 -0.045663744 -0.0026534477 0.0049926583 -0.048383895 -0.1479592 0.071859874 0.050588403 -0.18136631 0.07638774 -0.057223327 0.10518352 -0.15277821 0.007015159 -0.13074832 -0.18629466 0.07274142 -0.047327403 -0.18969646 -0.12902972 -0.021076677 0.10857318 -0.11022667 0.0065524294 0.14454438 -0.19445825 0.2173731 0.19906817 -0.02097341 0.048700426 -0.009024882 -0.13347174 -0.16788732 0.008377623 0.089001425 -0.16044784 0.066004075 -0.1005432 0.2361856 -0.13812353 0.2005703 -0.056086853 -0.08569629 0.11421354 0.13489899 0.20624034 -0.05754939 -0.08341626 -0.09566289 0.079430304 0.019789828 -0.017902227 -0.024706645 0.09593717 0.066191904 -0.0017392297 0.16877042 0.1484614 -0.024115238 -0.02682928 -0.018622033 0.1144318 0.085712075 -0.02667996 -0.058242086 -0.04861784 -0.22196709 0.09715175 0.17445321 -0.1547878 -0.11897333 0.14079568 0.09837937 -0.13947095 -0.018871566 0.019132094 0.19445342 0.042252604 -0.1557278 0.10577266 -0.08302157 0.02376384 -0.226546 -0.024622278 -0.08816987 -0.115272254 -0.034118157 0.08505424 0.14920257 -0.030689621 -0.07524187 0.17933586 0.17532346 0.071535386 0.06820402 0.12897767 0.02826028 -0.3296927 -0.21704243 0.08339634 -0.10463251 -0.009035499 -0.18605097 0.07742309 -0.02910204 0.14581394 -0.107027546 0.0064384174 0.09431603 -0.09070973 -0.16412632 -0.1905782 -0.0068938993 -0.114889055 0.07659207 -0.056525532 0.017105822 -0.05013646 -0.0794338 0.108061366 -0.0043080165
146 0.027134085 0.17523918 0.02472205 -0.10871891 0.024125291 0.073422015 -0.008635357 0.13086632 -0.048943292 0.0027158873 0.007919499 -0.042710558 -0.14294882 0.07544726 0.035037838 -0.17299177 0.071634896 -0.04404567 0.113397725 -0.1626371 0.0112313 -0.12955923 -0.18841743 0.055931438 -0.04354197 -0.1815762 -0.11954284 -0.024701724 0.0909532 -0.11837378 0.009299431 0.14314486 -0.18512575 0.21490799 0.1957204 -0.022969343 0.052051432 -0.016985495 -0.13218912 -0.15483369 -0.00046357594 0.08873785 -0.16512494 0.063792326 -0.09743476 0.23375183 -0.13030562 0.18829778 -0.04949548 -0.073817156 0.10529157 0.13724253 0.21748248 -0.057977874 -0.070309356 -0.098466374 0.080367655 0.009204834 -0.018567115 -0.025622038 0.10686648 0.06659546 -0.0033014426 0.16755696 0.13709515 -0.02615907 -0.03841116 -0.013255479 0.12628946 0.09574818 -0.026882587 -0.054112606 -0.048100993 -0.22410026 0.09475346 0.1765302 -0.1500837 -0.11853637 0.14050883 0.10136518 -0.13602856 -0.010641055 0.020271406 0.19225651 0.036723882 -0.13905975 0.10790315 -0.08717052 0.016571347 -0.22239126 -0.017355924 -0.09921294 -0.10858056 -0.042067796 0.07391561 0.15174702 -0.024399538 -0.06882001 0.18214019 0.16806972 0.06343314 0.06821987 0.12504335 0.031567384 -0.32723635 -0.22149141 0.074058786 -0.098980665 -0.010410139 -0.18860918 0.080991924 -0.014155906 0.13589483 -0.10471709 -0.0014781635 0.093428925 -0.08845383 -0.17841278 -0.18912135 -0.009875261 -0.109019004 0.06327624 -0.04305461 0.014867213 -0.046052154 -0.07813352 0.111399956 0.007861001
253 0.028298793 0.17168999 0.022394681 -0.1212064 0.015112645 0.075497285 -0.0005215225 0.1435214 -0.04253523 0.007338676 0.01089069 -0.048260953 -0.13127811 0.07381258 0.043020483 -0.18342055 0.070180744 -0.0450936 0.11806286 -0.16378765 0.011282206 -0.13447471 -0.18855752 0.059719343 -0.037768807 -0.19237435 -0.1330174 -0.018187603 0.0957823 -0.11180712 0.0067239036 0.14568146 -0.18794529 0.22287543 0.1959534 -0.028261406 0.04730016 -0.0059118737 -0.122577295 -0.1617798 -0.0021867102 0.08756484 -0.16184016 0.068618566 -0.11019411 0.23208976 -0.13965383 0.20335631 -0.05519351 -0.07847478 0.09977569 0.12499716 0.20384973 -0.06336673 -0.07552263 -0.105559915 0.0743161 0.014389823 -0.024710942 -0.02889086 0.10041745 0.079203084 0.0032675827 0.1738381 0.14029497 -0.016329426 -0.03248365 -0.007099465 0.12288156 0.09311897 -0.026865523 -0.052173883 -0.05299425 -0.22199637 0.09053384 0.17778222 -0.1515441 -0.13126576 0.12867433 0.097395524 -0.14224248 -0.0046609393 0.0132998 0.17850843 0.040084977 -0.14630899 0.099698596 -0.087040566 0.0060211183 -0.21568438 -0.027518079 -0.09511022 -0.12099229 -0.031293567 0.074292436 0.14868928 -0.028194077 -0.06125333 0.178878 0.17304379 0.07182846 0.07488514 0.12632877 0.018223215 -0.31367236 -0.21155787 0.080936335 -0.0884285 -0.019450055 -0.17596216 0.08352976 -0.021069698 0.14354745 -0.09502658 0.0041571422 0.09404653 -0.10228188 -0.18577968 -0.19130245 -0.008469573 -0.10907816 0.05915114 -0.043469653 0.021046666 -0.038065307 -0.07496812 0.119011275 -0.0010279774
176 0.021355188 0.16806886 0.026606416 -0.11726584 0.02139139 0.073528446 0.0036948838 0.13317765 -0.046040818 0.0050838436 0.00076356885 -0.04308691 -0.141508 0.07259253 0.042026192 -0.17489095 0.06815779 -0.049429942 0.108196154 -0.15077709 0.011785473 -0.13294616 -0.18118156 0.06965069 -0.05083562 -0.17352225 -0.13024053 -0.023603693 0.10088244 -0.09964009 0.011610763 0.13743098 -0.19557941 0.22549616 0.19043165 -0.019067084 0.060553208 -0.0070380257 -0.12451119 -0.16068968 0.003911975 0.0845835 -0.15549095 0.06666127 -0.10045424 0.2279325 -0.1220804 0.18186072 -0.04834044 -0.08428135 0.10704736 0.13623856 0.20095587 -0.05735093 -0.07049953 -0.10103309 0.07803161 0.013370332 -0.013512674 -0.031080697 0.09305812 0.06757709 8.244008e-05 0.17129862 0.13392192 -0.023336405 -0.038862627 -0.009400499 0.11653948 0.09504209 -0.03207804 -0.0591054 -0.061680574 -0.21907465 0.09577497 0.16867587 -0.15229335 -0.12251321 0.1404789 0.10979163 -0.13622822 -0.0031617812 0.010519236 0.18945019 0.04182818 -0.15842459 0.09450875 -0.08797328 0.014667212 -0.21816857 -0.019714998 -0.0865944 -0.12031099 -0.04354217 0.08104279 0.15571645 -0.019369846 -0.068984896 0.17399916 0.16707283 0.072258286 0.06497005 0.12616406 0.027613107 -0.32101807 -0.2107554 0.085101366 -0.09702973 -0.021527018 -0.1857214 0.073034786 -0.02003451 0.14751382 -0.104119666 0.006947038 0.10840747 -0.1005642 -0.16694255 -0.19500007 -0.007919536 -0.114403546 0.0641771 -0.048903245 0.01719748 -0.037979566 -0.07437103 0.117362924 0.0064894995
133 0.028328078 0.1810894 0.02927291 -0.11453839 0.011623108 0.071800895 -0.0049017007 0.13125709 -0.048468176 -0.0040337704 0.0037136339 -0.05387086 -0.14316955 0.07108483 0.036964558 -0.18016909 0.07293297 -0.046946038 0.11281883 -0.16301481 0.00532862 -0.13784449 -0.1817994 0.065229736 -0.04218738 -0.18834156 -0.12522289 -0.025089704 0.10327147 -0.10474975 0.0071950573 0.13882597 -0.18457167 0.21842897 0.20008811 -0.019358989 0.060439344 -0.0027195748 -0.12735167 -0.15980053 0.0046203528 0.0866775 -0.15708062 0.060974054 -0.102722995 0.22201632 -0.13468345 0.19137166 -0.04813622 -0.07349363 0.09950165 0.13749991 0.20820464 -0.06271516 -0.070741855 -0.09398034 0.07905886 0.02199846 -0.024806011 -0.028358411 0.10063481 0.07362391 -0.0051450054 0.16786411 0.13344915 -0.019684033 -0.027316932 -0.008882998 0.12602419 0.0860246 -0.02922999 -0.06582282 -0.053209215 -0.21249595 0.08912271 0.1788189 -0.14883518 -0.11516499 0.14236486 0.10120326 -0.12869732 -0.01571213 0.018771451 0.18196405 0.040334426 -0.15899761 0.10073453 -0.08956601 0.009045967 -0.21429247 -0.026777122 -0.092208 -0.118766375 -0.04211714 0.0748863 0.15566769 -0.016724251 -0.077242255 0.17096813 0.17289451 0.0710296 0.06836284 0.129068 0.030181063 -0.3198185 -0.2229792 0.0830519 -0.0997831 -0.018168015 -0.19169497 0.08571856 -0.026793722 0.14858702 -0.103004225 -0.0005656946 0.103166744 -0.08960023 -0.17113937 -0.19744973 -0.011979495 -0.113282345 0.07091369 -0.047864985 0.021474943 -0.050462894 -0.0761466 0.11195093 -0.00271763
36 0.03401934 0.16435294 0.02961257 -0.12032156 0.023035415 0.066677876 0.0007529477 0.12749505 -0.040073633 -0.008541295 0.009920532 -0.055609617 -0.14545612 0.0763789 0.05392201 -0.18186001 0.085367024 -0.05132978 0.10902118 -0.15157622 0.011878276 -0.124596536 -0.19420181 0.066572055 -0.03776499 -0.16896638 -0.13002782 -0.021747112 0.11499846 -0.11965726 0.0051221256 0.14760284 -0.18609536 0.22843477 0.18625511 -0.016743155 0.054495733 -0.012600668 -0.12931125 -0.16500068 0.011936583 0.080292225 -0.15088558 0.065313175 -0.10868948 0.2286872 -0.14324442 0.1900094 -0.06161508 -0.08487324 0.115354165 0.12227496 0.21533954 -0.05195462 -0.065722845 -0.08977612 0.0621619 0.006500479 -0.030340957 -0.02917452 0.0991017 0.077681504 -0.008447814 0.17563683 0.12581296 -0.02678298 -0.021737885 -0.0056946287 0.09360182 0.09217608 -0.022778684 -0.041822664 -0.05563677 -0.21588975 0.089905865 0.16293222 -0.14928782 -0.12047439 0.12934358 0.09636353 -0.14539307 -0.0030710276 0.004570094 0.18581973 0.018715832 -0.14939822 0.09325938 -0.07198028 0.01982442 -0.21921234 -0.021222856 -0.08628309 -0.104095854 -0.047782093 0.077379614 0.1425865 -0.024077274 -0.07678363 0.16059917 0.16722172 0.06574933 0.06750834 0.12253938 0.027574494 -0.33201873 -0.20466103 0.085238226 -0.09132822 -0.008666667 -0.18565059 0.06476669 -0.017753124 0.16099921 -0.11230727 0.013204563 0.10465623 -0.10726049 -0.17030692 -0.19344728 -0.00064236135 -0.11119714 0.07775898 -0.052303944 0.018293602 -0.05255832 -0.08331718 0.10610773 0.0028227135
360 0.029782373 0.18810119 0.028536186 -0.12125563 0.021693313 0.07435069 -0.011141457 0.15245046 -0.043015815 -0.002248773 0.010420841 -0.056021 -0.13465597 0.06903825 0.03405547 -0.18131465 0.07025071 -0.04783248 0.11028658 -0.166211 0.006271685 -0.14413324 -0.19492584 0.06689377 -0.05034597 -0.18541507 -0.12690437 -0.022590274 0.09852303 -0.10962415 0.008317177 0.1432558 -0.19940664 0.22253707 0.1941987 -0.02305096 0.060973156 -0.013276348 -0.13899574 -0.16081573 0.008962462 0.089849465 -0.16303155 0.063832596 -0.100557014 0.23065276 -0.13522525 0.19503018 -0.060542952 -0.0754951 0.11367924 0.13759273 0.21663715 -0.05871103 -0.06480966 -0.09737105 0.07769401 0.013505616 -0.021211121 -0.030381853 0.09890708 0.08345531 -0.004676405 0.17383331 0.14411962 -0.022416549 -0.043159373 -0.006930855 0.11262507 0.08866064 -0.020259285 -0.056156874 -0.047601067 -0.21638237 0.08694652 0.16568954 -0.14972912 -0.12921947 0.13410878 0.10206138 -0.14110763 -0.008433587 0.014367656 0.19038396 0.035878632 -0.14475553 0.09922755 -0.09271908 0.020510314 -0.21850668 -0.029430525 -0.09211605 -0.117257096 -0.040872596 0.08263687 0.15919626 -0.029256767 -0.07934209 0.1729536 0.16459517 0.06993555 0.0678561 0.13241081 0.020451222 -0.31599304 -0.21498847 0.08011261 -0.098524705 -0.014390825 -0.18090037 0.07419389 -0.02636367 0.14430685 -0.106697164 -0.0022665192 0.095436744 -0.09091988 -0.17113636 -0.19355786 -0.0022255834 -0.113338314 0.063463464 -0.04404994 0.025754564 -0.047064744 -0.08046699 0.10344766 -0.005970903
132 0.030886434 0.17563228 0.028189 -0.12353204 0.01505998 0.078227945 -0.007069742 0.14436102 -0.044308644 0.0037687654 0.008404431 -0.059511155 -0.14025977 0.07692029 0.036545265 -0.18800417 0.07349549 -0.042899527 0.10614854 -0.1541386 0.010323735 -0.13610187 -0.19071667 0.06380175 -0.045897074 -0.18864848 -0.12821041 -0.022964079 0.09865271 -0.10916219 0.009795953 0.15312462 -0.19845483 0.23095968 0.20302051 -0.021199675 0.052007746 -0.011800082 -0.13187273 -0.16775429 0.005745892 0.08809247 -0.16231588 0.069729164 -0.11159559 0.2353269 -0.1438137 0.19331373 -0.054042455 -0.08404684 0.10495117 0.14055301 0.21291685 -0.06259109 -0.06416245 -0.100967266 0.074662425 0.013651416 -0.025372205 -0.027183615 0.09881117 0.08530177 0.0013205332 0.17794783 0.1475195 -0.02029563 -0.03786704 -0.017120186 0.118807875 0.09420998 -0.03255378 -0.060764167 -0.056008313 -0.22673543 0.0946153 0.17525916 -0.1515982 -0.12683508 0.14906076 0.09458379 -0.14162464 -0.016646953 0.023183852 0.18826632 0.039690547 -0.15500902 0.10911659 -0.08233467 0.013802433 -0.22106211 -0.021318948 -0.097437575 -0.11738789 -0.044321876 0.07666641 0.15958494 -0.024391307 -0.07484126 0.17825945 0.17096175 0.074957326 0.07253647 0.13251439 0.026473807 -0.32505143 -0.22104158 0.079432815 -0.0899426 -0.015659882 -0.18571992 0.07651653 -0.02466859 0.14671907 -0.10464477 0.00044912042 0.10662402 -0.09757471 -0.16960049 -0.19534682 -0.0079232305 -0.10948336 0.064247176 -0.049784176 0.014141335 -0.038849436 -0.08126638 0.118277274 0.0027756987
67 0.023003938 0.17577812 0.022077406 -0.11218919 0.017500792 0.06582672 0.0056230496 0.14249903 -0.042560536 0.00048036475 0.006158409 -0.052355375 -0.14630929 0.07336529 0.040452912 -0.17810841 0.074930355 -0.036535278 0.11095993 -0.1617722 0.020650472 -0.13287756 -0.1949297 0.06040664 -0.04614208 -0.19540317 -0.122158684 -0.011470452 0.10387586 -0.10971325 0.005538842 0.14363138 -0.18711786 0.23387903 0.20417908 -0.028573304 0.053103924 -0.0051342444 -0.1289892 -0.17129909 0.0080888225 0.08592913 -0.16693738 0.06208193 -0.10039293 0.23230402 -0.14321315 0.20291607 -0.05778023 -0.08174564 0.106688045 0.13183318 0.20980167 -0.059751607 -0.06387534 -0.106812485 0.072862215 0.011861828 -0.024316559 -0.022743111 0.10639456 0.08427729 -0.009207539 0.1720616 0.15028727 -0.016242353 -0.036837466 -0.015694449 0.1344984 0.099640355 -0.030109504 -0.058160704 -0.049658697 -0.2305192 0.091046855 0.17880051 -0.14796689 -0.13377966 0.14776202 0.10130968 -0.13907981 -0.015323792 0.02403693 0.19194722 0.025006758 -0.15539189 0.108733535 -0.08012596 0.0098798815 -0.21680044 -0.019976756 -0.08948029 -0.11936694 -0.03436634 0.08273413 0.15486369 -0.024497475 -0.07638147 0.1768683 0.18281433 0.06455869 0.07054362 0.13326834 0.028376445 -0.326547 -0.22735642 0.07777208 -0.09533911 -0.007584182 -0.19169033 0.08351448 -0.018367568 0.14287366 -0.10822558 -0.0065312595 0.10888416 -0.09468485 -0.18384403 -0.19775775 -0.0075765317 -0.10644939 0.06502227 -0.047684383 0.01855612 -0.037316993 -0.07826233 0.12067498 6.0048536e-05
14 0.035714563 0.17382278 0.023226565 -0.11768745 0.014687096 0.081764296 0.00025706895 0.13104363 -0.04813302 -0.004031063 0.0054198457 -0.046919644 -0.14379571 0.08099402 0.046034675 -0.17814645 0.083501644 -0.040294614 0.10997628 -0.15635996 0.012687502 -0.13671023 -0.1909351 0.065429576 -0.04572671 -0.19031297 -0.120046675 -0.016919771 0.102785096 -0.11427856 0.011175074 0.14968002 -0.19345981 0.22168367 0.20195082 -0.019910123 0.061588082 -0.005777095 -0.13195418 -0.1662238 0.009311049 0.093603484 -0.15587161 0.062311728 -0.108867034 0.22734757 -0.1446388 0.20295633 -0.063741006 -0.07934502 0.10412888 0.13448396 0.20783944 -0.061969288 -0.06729145 -0.10007655 0.07466447 0.014781502 -0.016706616 -0.030100802 0.09228353 0.07065425 -0.001812354 0.17770906 0.14286774 -0.025939401 -0.03251119 -0.020379445 0.12305239 0.09527038 -0.026069932 -0.058244403 -0.054895386 -0.2234147 0.095231354 0.17845698 -0.1440149 -0.13084558 0.14365688 0.1026467 -0.14159453 -0.0059452225 0.015928565 0.19304298 0.03636391 -0.1586638 0.10389194 -0.082766466 0.022296572 -0.22683766 -0.01697965 -0.091936976 -0.12920341 -0.039374694 0.07868505 0.15321276 -0.023381727 -0.07794218 0.187373 0.1687935 0.0757476 0.07846166 0.122810364 0.036085222 -0.3311342 -0.22117871 0.07483081 -0.101058744 -0.012497973 -0.19617568 0.0863675 -0.02240927 0.14681835 -0.10286358 0.007758632 0.10144107 -0.099309064 -0.17751583 -0.188637 -0.012544938 -0.10653552 0.05927954 -0.0551346 0.024249522 -0.039900515 -0.07130494 0.11066522 -0.0013321893
83 0.028444918 0.17853734 0.02122349 -0.105357304 0.015656067 0.076257035 -0.01059141 0.13645242 -0.036966998 -0.0049051913 0.0045252168 -0.051633723 -0.13800745 0.08009974 0.04387193 -0.18512216 0.085213974 -0.053251456 0.109163664 -0.16285323 0.018184643 -0.13005343 -0.19188638 0.07004413 -0.040217213 -0.18382682 -0.13051444 -0.024794847 0.10306844 -0.10542743 0.014713432 0.14808229 -0.20352381 0.22573835 0.18952599 -0.03193961 0.05991154 -0.009688567 -0.12552264 -0.15654105 -0.0043118023 0.09293943 -0.15244654 0.069332436 -0.09577192 0.23366942 -0.13248017 0.20061657 -0.056944646 -0.07569442 0.10866565 0.13416535 0.20622824 -0.07060592 -0.06366314 -0.09082043 0.072472185 0.016843405 -0.019937912 -0.032514207 0.10100013 0.07411911 -0.00016844056 0.16363396 0.15019786 -0.024087524 -0.037462875 -0.0044062776 0.12651339 0.0840705 -0.032437533 -0.06673148 -0.048359208 -0.22818375 0.09046495 0.17961395 -0.14986677 -0.11806243 0.13825028 0.11177361 -0.13858438 -0.0042430465 0.02591953 0.19843863 0.04175631 -0.15470244 0.108298816 -0.08400534 0.009768938 -0.23152348 -0.026485391 -0.09452726 -0.11963888 -0.04661838 0.08017277 0.1602327 -0.017747093 -0.060579076 0.18040049 0.16970748 0.0724169 0.07282879 0.124107204 0.032718733 -0.3305076 -0.21428029 0.07220479 -0.10154834 -0.008630863 -0.18681785 0.07126954 -0.014739731 0.13531165 -0.10802882 0.0008417311 0.10074926 -0.10053482 -0.17943025 -0.19714469 -0.008318984 -0.111950636 0.06090844 -0.04417447 0.020396793 -0.044577546 -0.07709021 0.10623521 0.0028669748
301 0.020964148 0.17595457 0.01726548 -0.113709226 0.02166007 0.07202517 -0.007863179 0.1336904 -0.045341726 0.004144023 0.00956275 -0.05509444 -0.14081289 0.06997089 0.034166608 -0.17738779 0.07805189 -0.044865847 0.113972865 -0.15502577 0.01678467 -0.1385964 -0.18726501 0.06155385 -0.04126474 -0.18806498 -0.11738534 -0.020470401 0.10045054 -0.11791287 0.009831806 0.14113063 -0.18622914 0.21853605 0.19538485 -0.018316293 0.05990117 -0.018268423 -0.1322329 -0.15970507 -0.00096454547 0.07867577 -0.15940772 0.0563574 -0.09672901 0.22567736 -0.13261707 0.19770516 -0.059297018 -0.07842707 0.101543665 0.13915811 0.20710315 -0.059789006 -0.06460741 -0.097888984 0.06718455 0.016109284 -0.015747571 -0.0295102 0.10294862 0.073846 0.00074806524 0.17697842 0.147849 -0.019848917 -0.030365448 -0.022650573 0.12120426 0.09904821 -0.036838904 -0.056626696 -0.05624951 -0.22404103 0.09604251 0.18047008 -0.15731734 -0.119735464 0.13623598 0.1057031 -0.1447854 -0.011459219 0.01030534 0.19334042 0.026724003 -0.1518382 0.10975127 -0.09180655 0.015315353 -0.21517809 -0.020997291 -0.092983015 -0.123316534 -0.047252048 0.07603046 0.1562246 -0.018555997 -0.06568574 0.18178168 0.18176058 0.06641505 0.06465072 0.119820796 0.028104309 -0.3356411 -0.22199047 0.07943783 -0.09600109 -0.01684495 -0.19643873 0.07494544 -0.014571399 0.14428021 -0.09905615 -0.009397369 0.106951885 -0.091667354 -0.17325784 -0.18956068 -0.010762148 -0.11669263 0.07027563 -0.054787792 0.014494753 -0.03854415 -0.071341835 0.11786381 0.0057201814
204 0.03248001 0.17196003 0.020837242 -0.1193236 0.024208482 0.07758888 -0.007941411 0.13853088 -0.04254487 0.00067513215 0.008045794 -0.045937844 -0.14591369 0.07608983 0.041263323 -0.18598868 0.07633431 -0.042857416 0.11637271 -0.14981443 0.012899458 -0.13747603 -0.1923985 0.06357881 -0.04283473 -0.19514197 -0.12712353 -0.020023426 0.09954025 -0.10549541 0.010711368 0.13821228 -0.18706384 0.2196097 0.18696365 -0.023012983 0.049458608 -0.0047939224 -0.13663962 -0.16180661 0.0065969937 0.08761132 -0.15220551 0.06618688 -0.10424481 0.23572879 -0.12900902 0.1887764 -0.0588282 -0.08227475 0.10841043 0.13404399 0.21053247 -0.062433187 -0.07473945 -0.106536776 0.07575341 0.010175952 -0.024652833 -0.016787238 0.104639515 0.07526228 0.0014035464 0.16314766 0.14325072 -0.02208631 -0.033450525 -0.009055634 0.11361747 0.09181308 -0.030204881 -0.051740546 -0.050169636 -0.22207546 0.09639145 0.1717598 -0.1575478 -0.1303594 0.14463969 0.102941036 -0.13880187 -0.008928785 0.017808659 0.19379698 0.033911765 -0.14518358 0.10996319 -0.082524404 0.018301673 -0.21657701 -0.026874054 -0.090088785 -0.11564907 -0.045760904 0.08420864 0.15766421 -0.022647895 -0.072445914 0.18028688 0.1728134 0.073440544 0.07011782 0.12943675 0.031367414 -0.3292183 -0.21751614 0.08113057 -0.09988103 -0.009499519 -0.18898381 0.0822099 -0.025203232 0.14548586 -0.10199575 0.0051983055 0.10092612 -0.096001655 -0.17641135 -0.20102404 -0.00016192324 -0.11646851 0.061485983 -0.052972212 0.020847334 -0.041605245 -0.08415533 0.116891295 0.0065061403
183 0.0330507 0.18089023 0.02741316 -0.11704896 0.02343431 0.07510484 -0.008994662 0.1417424 -0.04635822 0.0020839777 0.012170793 -0.05158154 -0.14700203 0.07869023 0.039099757 -0.17394507 0.081398465 -0.045357693 0.11517364 -0.1606765 0.0045393496 -0.1324258 -0.19274147 0.063790135 -0.041637454 -0.18425009 -0.11862379 -0.018881993 0.09374477 -0.1077547 0.017073128 0.14691365 -0.18943274 0.22836535 0.19660339 -0.02383901 0.057820123 -0.013458122 -0.13685 -0.15386619 -0.0050987694 0.08138953 -0.14830646 0.06599499 -0.10856974 0.2336978 -0.13770473 0.1880534 -0.057522587 -0.077706285 0.11244183 0.12948208 0.20986451 -0.055000756 -0.07413046 -0.10121875 0.07215134 0.019874856 -0.023012338 -0.01889873 0.09732861 0.073697455 -0.0031601624 0.1718814 0.14485899 -0.022640172 -0.03560171 -0.017434312 0.113427326 0.086451 -0.02455255 -0.06257786 -0.045299534 -0.22723587 0.097804256 0.17248759 -0.15808606 -0.1225655 0.13591719 0.0936506 -0.13148396 -0.0051847617 0.020409953 0.19554843 0.036961045 -0.14952838 0.10718513 -0.08600829 0.011495383 -0.2255927 -0.019405019 -0.086510815 -0.109937035 -0.038072303 0.082858354 0.1547663 -0.025713082 -0.066164285 0.1740926 0.16098276 0.069053106 0.07694623 0.13050655 0.03317887 -0.32809383 -0.21117827 0.08403246 -0.10169797 -0.008902195 -0.18691456 0.06895465 -0.026177868 0.14919591 -0.11098595 0.007141997 0.09624871 -0.10134835 -0.16870415 -0.19451708 -0.0032217773 -0.11130623 0.06437643 -0.050480932 0.0125210835 -0.056040116 -0.07053459 0.10604835 0.0028307678
15 0.03014202 0.17975436 0.033309042 -0.118055485 0.016182655 0.07057625 -0.002923981 0.13474964 -0.047037058 0.007759789 0.007893369 -0.047194075 -0.14971496 0.07898143 0.04472708 -0.18639205 0.08645405 -0.04457857 0.113608934 -0.15677735 0.017098766 -0.1284448 -0.19742703 0.062394578 -0.039288905 -0.18206294 -0.13326831 -0.017885821 0.10958097 -0.11107752 0.008778117 0.1375401 -0.19836344 0.23522028 0.19796272 -0.019408733 0.059382126 -0.006613008 -0.13982219 -0.15175304 0.009129325 0.086725496 -0.16703108 0.06441955 -0.10555492 0.22775489 -0.13075832 0.1941394 -0.05213578 -0.07672925 0.11430779 0.13197088 0.22020109 -0.052256852 -0.06779817 -0.10542366 0.06563402 0.0059298137 -0.017527122 -0.023806866 0.10319753 0.07147615 0.00526308 0.17355752 0.13734189 -0.019095188 -0.039004836 -0.0021318495 0.11780018 0.0903487 -0.023058861 -0.046982426 -0.055559978 -0.21983327 0.094097055 0.1725954 -0.14886391 -0.11926981 0.13299586 0.104632854 -0.13890326 -0.0040516932 0.011380517 0.19113433 0.035237134 -0.15559074 0.109751225 -0.08304584 0.012892393 -0.22109582 -0.020677632 -0.099312775 -0.114624545 -0.041441724 0.08606414 0.14529955 -0.022828573 -0.080822356 0.18576139 0.17018673 0.07190829 0.07488995 0.13263403 0.036306154 -0.33939052 -0.22362664 0.084194146 -0.09356482 -0.00962198 -0.19355112 0.07553684 -0.023209492 0.1467756 -0.11153344 0.0044290023 0.108086035 -0.10033242 -0.18101008 -0.1938033 -0.008249708 -0.11357367 0.07834446 -0.055658855 0.01572214 -0.045157973 -0.083749086 0.123097785 0.007953215
285 0.025070133 0.18082932 0.025338622 -0.11981376 0.018950853 0.07775408 -0.011943535 0.13399778 -0.04421721 -0.00581919 0.009109147 -0.051985994 -0.14667982 0.07799421 0.0416672 -0.18240394 0.081726074 -0.05047494 0.10593442 -0.15665996 0.010406455 -0.13692415 -0.19942123 0.06479107 -0.039267913 -0.18279234 -0.12843646 -0.01950866 0.09658691 -0.115721814 0.013320243 0.1498479 -0.19099003 0.21834639 0.19808143 -0.029225871 0.051809534 -0.006513273 -0.12939171 -0.15299128 0.010531451 0.081946075 -0.1595876 0.067212515 -0.10825269 0.23379412 -0.13310403 0.19751842 -0.056714814 -0.072215185 0.11044319 0.12871465 0.22214547 -0.060759045 -0.061483983 -0.094581604 0.07282444 0.008541664 -0.021998243 -0.031903453 0.109525 0.07177071 0.0032471728 0.1727127 0.14479707 -0.016115356 -0.030976644 -0.013198546 0.117461696 0.09114407 -0.027188174 -0.051655617 -0.047114708 -0.22891438 0.097610414 0.17264457 -0.1436623 -0.121349685 0.14291729 0.093429476 -0.13586064 -0.0133471815 0.01086733 0.19795828 0.038691882 -0.15187253 0.10747563 -0.079576395 0.024463626 -0.22316216 -0.025286652 -0.09989223 -0.12056102 -0.04043015 0.08349513 0.14813623 -0.030706316 -0.07892187 0.18181032 0.17503041 0.07149722 0.069013186 0.13317226 0.029172717 -0.3333171 -0.21230687 0.07390087 -0.105225906 -0.008811739 -0.18914595 0.08082065 -0.030290473 0.15455142 -0.10456832 0.010630618 0.09386824 -0.09428017 -0.16734152 -0.18887018 -0.010733362 -0.11685586 0.06739371 -0.056182265 0.010250871 -0.050729208 -0.086994894 0.11407648 0.004701317
254 0.025169894 0.1768408 0.015718061 -0.12882163 0.024619168 0.08076276 -0.006064422 0.14327478 -0.051316354 -0.0018290061 0.009184079 -0.054969016 -0.1408837 0.06711433 0.04555952 -0.18696944 0.07089285 -0.043730434 0.11076631 -0.15693152 0.017822098 -0.13481084 -0.19138655 0.07159737 -0.051508754 -0.18876456 -0.12987024 -0.024922695 0.096233174 -0.1037466 0.006476968 0.13616382 -0.18930738 0.22786082 0.19824536 -0.029051224 0.056185413 -0.0056242608 -0.121267654 -0.16772549 0.004359143 0.08952561 -0.16335025 0.06507846 -0.10271031 0.22762954 -0.1292409 0.19098778 -0.053709652 -0.08245991 0.105662875 0.12437597 0.21086721 -0.061887182 -0.077724636 -0.09411078 0.06712991 0.01745454 -0.027668986 -0.02971913 0.10754298 0.0778183 -0.014125642 0.17137042 0.14483386 -0.014925416 -0.03451977 -0.014362008 0.11609132 0.08960244 -0.031067876 -0.05981272 -0.0462361 -0.22524962 0.092262894 0.17899941 -0.14677295 -0.12339763 0.1397669 0.10313676 -0.13102658 -0.0010983358 0.025475249 0.17971149 0.041533202 -0.15451121 0.09979425 -0.080378756 0.0061566345 -0.22128509 -0.026124509 -0.09912783 -0.10949425 -0.042144537 0.08539027 0.15724912 -0.017485019 -0.07462472 0.18149933 0.17400913 0.07565792 0.059280097 0.13091943 0.023349462 -0.32280183 -0.21280642 0.08356541 -0.10188544 -0.012388127 -0.17660695 0.0814695 -0.021413209 0.1419276 -0.10238407 0.006237451 0.10093239 -0.095015086 -0.17486954 -0.19137107 0.000579651 -0.1100215 0.06763113 -0.04250587 0.017500829 -0.03407137 -0.075943425 0.11188698 -0.003845931
259 0.02685572 0.18116364 0.027482038 -0.118285514 0.020282928 0.07706187 -0.007986772 0.13929388 -0.042664062 0.00027496074 0.0002713834 -0.045676835 -0.1358683 0.073043846 0.04659422 -0.17771244 0.077637814 -0.04459105 0.11821189 -0.14628729 0.019952603 -0.13487007 -0.19276088 0.070528485 -0.042701337 -0.18674803 -0.1268968 -0.027769292 0.100912124 -0.10185053 0.013277065 0.13718638 -0.19680192 0.22735135 0.19029863 -0.021782313 0.060260378 -0.0071922094 -0.1344403 -0.15979002 -0.002549348 0.08507182 -0.15857977 0.0716588 -0.09412205 0.22743654 -0.12708874 0.1951684 -0.04877282 -0.08485927 0.1085012 0.12723096 0.20813157 -0.06331737 -0.069171965 -0.105997965 0.0729284 0.01931756 -0.024839148 -0.023313407 0.10612946 0.074757464 -0.00919885 0.16659433 0.15199329 -0.021143958 -0.03120776 -0.0072859246 0.116767585 0.08876554 -0.032957897 -0.06145603 -0.056117263 -0.22506887 0.09487454 0.1725662 -0.15622757 -0.13211022 0.13683829 0.10306577 -0.13065565 -0.0076323394 0.015788132 0.18584722 0.03890311 -0.15308152 0.10786245 -0.08888376 0.009982018 -0.22553505 -0.02217144 -0.08854514 -0.11726623 -0.036998637 0.08230223 0.15557471 -0.020165486 -0.062372785 0.1820819 0.17447984 0.06954012 0.07401629 0.12827982 0.021134097 -0.3345807 -0.22272925 0.08156829 -0.10222072 -0.0037130066 -0.19771916 0.08454113 -0.019088015 0.13958481 -0.10407774 0.0024460002 0.104752846 -0.09454373 -0.16964705 -0.20118387 0.0027908825 -0.11191151 0.061510872 -0.051359996 0.017207563 -0.0418189 -0.08185098 0.10356848 -0.003938055
10 0.032064766 0.17606641 0.024920018 -0.11295865 0.015057109 0.083837956 7.2421986e-05 0.13501671 -0.04163259 0.0040285448 0.0033309197 -0.054797787 -0.14275572 0.082281604 0.04315036 -0.18576205 0.0834887 -0.049620878 0.11566369 -0.16094694 0.013268255 -0.13622025 -0.19138275 0.05968687 -0.03957725 -0.19259243 -0.123123646 -0.026637262 0.10313533 -0.11570039 0.010704869 0.1412825 -0.19277835 0.22632822 0.1904579 -0.027380114 0.057448443 -0.0062037664 -0.12976421 -0.15986112 0.0061030537 0.09194107 -0.15326153 0.06973734 -0.10009825 0.24235635 -0.13852352 0.1869157 -0.061490186 -0.0824645 0.11426634 0.1392573 0.21156302 -0.06124663 -0.06791715 -0.09523309 0.07163953 0.022318995 -0.0093979845 -0.020095076 0.10144733 0.0831823 -0.0035548888 0.17225772 0.14451306 -0.021269893 -0.040704638 -0.017950077 0.11459789 0.09406488 -0.026675489 -0.05350201 -0.05360673 -0.2325269 0.090617366 0.17655404 -0.15579547 -0.12116464 0.13658975 0.107033126 -0.14000775 -0.0011141865 0.012102427 0.19335337 0.03860068 -0.15721564 0.10303581 -0.09051128 0.016051091 -0.21982346 -0.02830486 -0.093434945 -0.10967976 -0.041048005 0.08605523 0.15158103 -0.021290375 -0.06949597 0.17873403 0.17576109 0.06955365 0.069589056 0.12972634 0.023907276 -0.32701764 -0.21802089 0.07344995 -0.088751145 -0.015582301 -0.18562922 0.078958765 -0.015044068 0.13733904 -0.10456777 0.008683381 0.10052421 -0.09121999 -0.17404042 -0.18744102 -0.0061062626 -0.11218993 0.06750568 -0.048089024 0.018106906 -0.05134054 -0.07882382 0.11384286 0.00061168126
38 0.020479096 0.1782324 0.028125366 -0.1219675 0.024466466 0.08116911 -0.004126656 0.14687212 -0.03509398 -0.0016064135 0.0019558843 -0.05298665 -0.14487183 0.07553119 0.042886503 -0.17438601 0.071658164 -0.041886076 0.12157547 -0.15160133 0.015177445 -0.13572285 -0.19065218 0.06068512 -0.05028741 -0.1874052 -0.13068627 -0.022139909 0.09823908 -0.11467637 0.0067825583 0.13908519 -0.19827984 0.22511175 0.19619475 -0.029511001 0.05106814 -0.012278053 -0.13876183 -0.15966517 0.002851802 0.08405233 -0.1627136 0.057155322 -0.100154996 0.23036627 -0.13532563 0.19137986 -0.06065451 -0.082098246 0.11105981 0.1398029 0.22308038 -0.058393665 -0.074035265 -0.09480147 0.076996535 0.017095031 -0.015869549 -0.020559695 0.09925969 0.072277054 0.0025904104 0.174721 0.14160728 -0.01696091 -0.039131325 -0.008184357 0.12078101 0.088835046 -0.026967067 -0.05659269 -0.051283464 -0.22322875 0.0881374 0.17606337 -0.1545114 -0.1251784 0.1369887 0.10042288 -0.1403316 -0.0067933155 0.02117976 0.1896148 0.042239342 -0.1499049 0.09985414 -0.09460997 0.014526151 -0.21607853 -0.025471263 -0.09192472 -0.115251005 -0.034309708 0.07814361 0.15663004 -0.019450095 -0.074155495 0.18323165 0.17259409 0.07775091 0.072509065 0.13202536 0.029019931 -0.3331382 -0.21354179 0.08127026 -0.10120404 -0.0013691976 -0.19623613 0.07871231 -0.02514659 0.14797744 -0.10349443 0.002662582 0.10474578 -0.099533625 -0.17174478 -0.19504975 -0.008455589 -0.11251271 0.06436485 -0.043841302 0.02315848 -0.041058928 -0.088997155 0.11508685 -0.0033540747
95 0.030232511 0.18345228 0.017496144 -0.11925569 0.01959051 0.07313225 0.0012824358 0.13889836 -0.044750907 -0.0058976025 -0.0024511807 -0.054496177 -0.14405973 0.07830809 0.039739233 -0.183354 0.07385371 -0.04650564 0.11051107 -0.16334829 0.017485622 -0.13158968 -0.18673614 0.07072939 -0.038504183 -0.18348488 -0.1222312 -0.019370724 0.09785691 -0.11561751 0.017605677 0.14768238 -0.19139388 0.23032948 0.19557223 -0.017494028 0.052020613 -0.010751223 -0.12584288 -0.15367171 -0.007140252 0.09206958 -0.15149222 0.07095164 -0.100660376 0.23407348 -0.1329065 0.19949809 -0.062844284 -0.07404455 0.11565615 0.13412556 0.20993848 -0.05874123 -0.07257285 -0.10308326 0.06662886 0.020706056 -0.028243368 -0.025356587 0.1050371 0.073303066 -0.007018368 0.17126371 0.14276204 -0.028228596 -0.036771514 -0.010104218 0.11266184 0.092702255 -0.029851438 -0.052511584 -0.048897155 -0.22453749 0.087101944 0.17365657 -0.15416515 -0.12433627 0.14141683 0.09877064 -0.1449462 -0.014676411 0.014434515 0.19692442 0.03604406 -0.1545238 0.111829855 -0.09190406 0.014184289 -0.22386168 -0.019560305 -0.0850933 -0.122803226 -0.03895584 0.08035157 0.14896595 -0.026329642 -0.07415819 0.17741972 0.17183977 0.07363489 0.07778786 0.12601487 0.021339467 -0.32095212 -0.2180364 0.08288072 -0.100137904 -0.012220345 -0.18864149 0.075124554 -0.026538463 0.1514083 -0.10653631 0.0021817316 0.10846364 -0.088979386 -0.18213375 -0.1980007 -0.0048787845 -0.11221056 0.07333828 -0.047437973 0.009688498 -0.04252415 -0.0778947 0.11579088 0.003795254
244 0.026534174 0.17199889 0.01613684 -0.114660084 0.015706975 0.0743623 -0.011995836 0.13795343 -0.046493396 -0.0028273202 -0.00019102932 -0.048499968 -0.14401506 0.0786566 0.044661906 -0.18037145 0.08345876 -0.04489404 0.11072156 -0.15676923 0.006071208 -0.13568667 -0.19529027 0.067758955 -0.047122028 -0.19263954 -0.13199331 -0.026135948 0.09403713 -0.1070481 0.015193091 0.14665262 -0.19585429 0.22797546 0.19538514 -0.024757486 0.056021687 -0.008541866 -0.12746418 -0.15834305 0.0032425262 0.08236725 -0.16173704 0.06561836 -0.10007961 0.23403612 -0.12885793 0.19618829 -0.055120826 -0.07567016 0.108060226 0.12529522 0.21437034 -0.053367555 -0.06777651 -0.09938676 0.072483316 0.013853734 -0.024058819 -0.021761494 0.10492074 0.07869033 -0.0036403101 0.17967325 0.1392982 -0.021664765 -0.028491322 -0.016450835 0.11245435 0.08930354 -0.021088263 -0.06409449 -0.048548955 -0.22175784 0.094267495 0.17730172 -0.14851147 -0.13155815 0.14172421 0.09503839 -0.13292898 -0.010057837 0.014646889 0.1933604 0.039921034 -0.15213388 0.11168411 -0.082541905 0.007192479 -0.2187863 -0.027923904 -0.08559553 -0.121454366 -0.036766995 0.07925878 0.15147172 -0.026302826 -0.07034269 0.17744966 0.16173285 0.073953345 0.06953129 0.13534111 0.032628875 -0.3179665 -0.22179654 0.086649604 -0.09612163 -0.004858032 -0.18324935 0.07542157 -0.018636625 0.14919545 -0.10795535 -0.00020465539 0.10694392 -0.09732572 -0.17133231 -0.19483475 -0.006018108 -0.11491028 0.064367674 -0.04853871 0.009101312 -0.041089516 -0.07938861 0.1159791 -0.0031749767
4 0.032266587 0.18066572 0.018540928 -0.115543984 0.022546453 0.07568485 -0.008170999 0.13915032 -0.041497264 -0.004844483 0.013240548 -0.064295314 -0.14040522 0.0714937 0.043170393 -0.18121278 0.07293819 -0.04351038 0.11695125 -0.15446861 0.009904531 -0.1326821 -0.19447121 0.061556995 -0.036941703 -0.18410225 -0.13159776 -0.028795255 0.11181754 -0.107383974 0.017770246 0.15172732 -0.19332962 0.22469646 0.18450621 -0.020936063 0.051525604 -0.006781045 -0.13424568 -0.1641886 0.011802329 0.07908958 -0.15780069 0.06857731 -0.107361905 0.2231677 -0.13203642 0.18571137 -0.05288851 -0.08279328 0.11177999 0.13282166 0.20500189 -0.064290054 -0.07421771 -0.089674726 0.063580334 0.01876578 -0.022611752 -0.020609625 0.09996446 0.075315684 -0.007808479 0.17468543 0.13075249 -0.018042834 -0.030153805 -0.0025831468 0.102674566 0.09285953 -0.023579568 -0.052038833 -0.05374905 -0.21549246 0.093035415 0.16332804 -0.14867617 -0.12125755 0.14105289 0.09750337 -0.13971387 -0.006970098 0.008238911 0.18805525 0.028078267 -0.14704002 0.0955218 -0.08219214 0.013809961 -0.22132704 -0.0213339 -0.089106396 -0.11483875 -0.040350463 0.08489433 0.15744677 -0.030891746 -0.07402939 0.16821271 0.17622788 0.07621782 0.06323004 0.13407603 0.035256743 -0.3250758 -0.20486937 0.08180245 -0.08766226 -0.011920054 -0.17976527 0.08349008 -0.02052074 0.15804665 -0.11089905 0.00846213 0.09655555 -0.09988052 -0.17292945 -0.19778004 -0.0018708002 -0.11421824 0.063063025 -0.047191504 0.018693147 -0.047259133 -0.08775241 0.114312366 0.00043934886
249 0.02923142 0.16881835 0.028022224 -0.113916524 0.01273599 0.07701017 -0.0044463184 0.1388319 -0.052696552 0.0008455122 0.0024556122 -0.047803115 -0.13704298 0.0736526 0.041669276 -0.17531149 0.082835 -0.04214674 0.112775266 -0.15768157 0.014000396 -0.12415754 -0.18986022 0.06118368 -0.04261532 -0.18243824 -0.12162237 -0.018025294 0.100291215 -0.1159589 0.005428197 0.14962743 -0.19742322 0.22001313 0.1943172 -0.03021268 0.061633736 -0.007766156 -0.1246609 -0.16140313 0.0027410614 0.08959178 -0.15561196 0.055208847 -0.102410965 0.22957897 -0.13679542 0.19631755 -0.052416775 -0.07928394 0.10363419 0.1298748 0.21162134 -0.05433246 -0.060681093 -0.0975741 0.075014144 0.022659097 -0.012986063 -0.023781352 0.100877635 0.0765996 0.0020606664 0.16514713 0.13956812 -0.023937415 -0.035136934 -0.011785285 0.11951516 0.10175128 -0.027925963 -0.05376563 -0.055825587 -0.21775658 0.088336386 0.1712686 -0.1515366 -0.12665147 0.14031672 0.10078959 -0.13938296 -0.0134476675 0.010908535 0.19414029 0.029861545 -0.14674366 0.10216346 -0.076805 0.007840914 -0.22070469 -0.01885656 -0.086536884 -0.11854727 -0.037609365 0.077309504 0.15956423 -0.028825155 -0.06640204 0.17577498 0.17054479 0.065687865 0.06616211 0.12811373 0.022378 -0.327573 -0.22318499 0.07238867 -0.09513443 -0.018005896 -0.18609479 0.078182474 -0.020319317 0.13921909 -0.099615455 0.002591416 0.10035252 -0.098669395 -0.17721611 -0.19924481 0.0013171461 -0.10109702 0.067489564 -0.05780156 0.014170862 -0.042846534 -0.07119557 0.105408415 0.0011828693
468 0.02977587 0.17866938 0.027169393 -0.12164401 0.022042278 0.0725741 0.0014678262 0.14498211 -0.035133928 0.0031913475 0.0016384149 -0.051261507 -0.1407703 0.08516959 0.036254734 -0.18633594 0.07262568 -0.040433783 0.11193707 -0.15431643 0.017216306 -0.13102135 -0.19291487 0.06758454 -0.03983587 -0.18457125 -0.12798746 -0.021323496 0.09299279 -0.115192235 0.0020543146 0.14550443 -0.19060002 0.2278207 0.19375312 -0.023403462 0.057786465 -0.01067731 -0.124909855 -0.15363544 0.0005333829 0.087294735 -0.15617716 0.06899102 -0.10661503 0.23741204 -0.13167354 0.20160216 -0.052564714 -0.07480091 0.10534599 0.13276155 0.20741287 -0.06298284 -0.0761742 -0.09186831 0.067982554 0.018539183 -0.023995578 -0.02845787 0.102761775 0.07981697 -0.0054986207 0.17483528 0.13681684 -0.020174695 -0.03663254 -0.008020629 0.11542958 0.08631802 -0.030816663 -0.057583243 -0.05436193 -0.21847661 0.09755913 0.1730623 -0.1556716 -0.12658453 0.14343674 0.10287542 -0.14040045 -0.0071675056 0.018284427 0.19016059 0.036486324 -0.16020611 0.11338148 -0.08495449 0.008600946 -0.22411941 -0.023059832 -0.092544176 -0.119923115 -0.03592199 0.07716519 0.156794 -0.020719092 -0.06484936 0.17869452 0.16859895 0.06615463 0.07152608 0.1310906 0.023022646 -0.326008 -0.21346061 0.08350826 -0.0926301 -0.012340188 -0.18698493 0.07187692 -0.03249785 0.15357852 -0.10699474 0.0009924655 0.10365359 -0.0900555 -0.18104161 -0.19448611 -0.010906669 -0.105078086 0.0716956 -0.049445104 0.019982787 -0.045279678 -0.07566808 0.11912378 0.0026282715
235 0.022481212 0.16896461 0.025637083 -0.11364941 0.010174316 0.071592845 -0.005527406 0.1362327 -0.045126032 -0.006097917 0.00092384504 -0.05858457 -0.14244838 0.07451178 0.046805263 -0.18104182 0.07393272 -0.04966824 0.107916094 -0.16163002 0.017929874 -0.12717992 -0.19248986 0.0651021 -0.047269188 -0.18363552 -0.12291939 -0.016884549 0.09595592 -0.111387536 0.0132245375 0.14625247 -0.18562506 0.22856203 0.19960663 -0.017574942 0.06198121 -0.0046609407 -0.1295866 -0.1578182 0.00026178392 0.08457342 -0.15487796 0.06518651 -0.10825321 0.22570533 -0.13658355 0.20084864 -0.05657668 -0.07884558 0.11173698 0.12989369 0.20847987 -0.060570013 -0.07029454 -0.09220583 0.07607608 0.014112555 -0.020624937 -0.024858354 0.10464321 0.076738216 -0.00438503 0.16759035 0.14439054 -0.021322984 -0.032163166 -0.012950375 0.11222171 0.08785234 -0.028055992 -0.05886325 -0.045398496 -0.22657876 0.08767302 0.177007 -0.15325521 -0.12205316 0.14062859 0.104676865 -0.13405147 -0.008201008 0.013225088 0.19519658 0.038843036 -0.15564926 0.10667207 -0.09214672 0.017543526 -0.22426058 -0.016824713 -0.08356417 -0.12063016 -0.044090737 0.08514135 0.14925668 -0.020707693 -0.06841936 0.16779096 0.16925678 0.07419994 0.07133781 0.12763952 0.030750126 -0.32587543 -0.20979854 0.08313061 -0.09445852 -0.009190477 -0.18406142 0.07762103 -0.022436913 0.14945817 -0.10651229 -0.0023967165 0.108198136 -0.0948657 -0.1719868 -0.19305432 -0.0072284704 -0.10337197 0.06450514 -0.04702883 0.013636489 -0.05440223 -0.0747054 0.11129765 0.006250421
43 0.021923548 0.17947005 0.02249297 -0.12836947 0.024980426 0.06989034 -0.0034736786 0.13822688 -0.03948309 -0.006637421 0.012230415 -0.053796314 -0.14524831 0.080731526 0.03975575 -0.1859277 0.08202833 -0.040655762 0.12093672 -0.15866214 0.012356379 -0.13641238 -0.18988676 0.064576335 -0.03860841 -0.19797288 -0.13021745 -0.021594895 0.10262872 -0.107697085 0.0077366824 0.15099508 -0.20254211 0.22372718 0.20092887 -0.030163616 0.04653172 -0.006271204 -0.1318731 -0.16949192 0.0073906346 0.082482494 -0.16238871 0.069674656 -0.09764212 0.23979713 -0.13659783 0.19735168 -0.05436548 -0.08665648 0.113752596 0.13191095 0.21582809 -0.07038724 -0.068226025 -0.106357105 0.08220382 0.013639663 -0.015507144 -0.023427019 0.09972826 0.085664265 0.002105982 0.16674252 0.14584246 -0.024765931 -0.034916643 -0.014544897 0.12576123 0.09224618 -0.029183574 -0.05805697 -0.04382128 -0.22019623 0.09539179 0.16708237 -0.15128121 -0.12423353 0.13652301 0.10555507 -0.13873258 -0.018512484 0.01722287 0.1811976 0.02892097 -0.15770644 0.100173764 -0.09241713 0.007658217 -0.23019429 -0.030540917 -0.092976436 -0.11214287 -0.03231622 0.08307248 0.15434675 -0.024188634 -0.071446896 0.17317264 0.1742174 0.0654642 0.07562727 0.12937924 0.024920054 -0.32060495 -0.22192506 0.0735429 -0.091234446 -0.010119523 -0.18793252 0.0744985 -0.019905893 0.1381271 -0.10542827 0.008579931 0.09628481 -0.09421937 -0.17341739 -0.20011045 -0.009664712 -0.10772316 0.060758565 -0.04364248 0.022045309 -0.046170108 -0.08557335 0.11654746 0.004482111
237 0.029695272 0.18699722 0.019893724 -0.11884948 0.021207716 0.073845126 -0.0037365227 0.13783279 -0.037063718 -0.0009463504 0.0013902459 -0.04668202 -0.13619444 0.07945788 0.046297636 -0.18443811 0.0850818 -0.048304435 0.116907425 -0.153732 0.015488515 -0.13535069 -0.18936554 0.07340816 -0.044559628 -0.18800156 -0.12337079 -0.02016826 0.09852705 -0.10427914 0.008267384 0.15197511 -0.19176953 0.22327912 0.19521043 -0.026684035 0.05202875 -0.0077246972 -0.12933435 -0.16306297 -0.0046452787 0.08694354 -0.15306088 0.06426589 -0.09863488 0.22631854 -0.13627256 0.19385703 -0.062470555 -0.08256037 0.1132472 0.13056873 0.21502018 -0.06851186 -0.06432604 -0.10153779 0.0819972 0.01869015 -0.023389956 -0.02327063 0.109886885 0.080784306 -0.0044695116 0.16683407 0.14430036 -0.016367108 -0.03285187 -0.010759722 0.11263598 0.088603735 -0.030409552 -0.061196126 -0.046460927 -0.22713527 0.09948536 0.17289457 -0.15705846 -0.1257332 0.13999373 0.10015381 -0.14177951 -0.017373312 0.01696568 0.19021235 0.03663678 -0.15684696 0.10547332 -0.08305067 0.0012141628 -0.23108995 -0.028545436 -0.09519881 -0.11714797 -0.041656777 0.08955562 0.15313157 -0.024594229 -0.0716491 0.18388006 0.16855542 0.07099019 0.074925564 0.12797496 0.024664078 -0.33243033 -0.21712172 0.0847201 -0.09559859 -0.011328389 -0.19273967 0.07912955 -0.019680016 0.14120322 -0.10953026 0.010203956 0.10974769 -0.10549724 -0.17239767 -0.20094122 -0.012091238 -0.116537444 0.06653292 -0.05135706 0.011324262 -0.042456415 -0.08677334 0.10981823 0.0005014304
373 0.031404644 0.1747861 0.024898333 -0.11868849 0.019272888 0.0739318 0.003748162 0.1421336 -0.044735808 0.0012578379 -0.0012897617 -0.04880933 -0.14335683 0.07388339 0.04166732 -0.17736879 0.07835656 -0.044248756 0.1108886 -0.15678358 0.019846145 -0.13499382 -0.1957268 0.07069501 -0.046237405 -0.19441402 -0.12574506 -0.022172805 0.0972218 -0.113746606 0.015998162 0.1390127 -0.19345577 0.23136888 0.19459371 -0.029340576 0.055605818 -0.008112834 -0.1319175 -0.15733477 0.005894904 0.09191812 -0.15689944 0.06299143 -0.09644798 0.22730963 -0.13575791 0.20052922 -0.059483763 -0.07486486 0.105945244 0.13543616 0.21753179 -0.059318457 -0.065643676 -0.09736128 0.076313354 0.016065933 -0.014529072 -0.01812657 0.101141706 0.072839275 -0.0012654621 0.17164794 0.1396445 -0.02247383 -0.037301276 -0.012232703 0.11401395 0.08982895 -0.033233263 -0.05584776 -0.051204626 -0.22259349 0.08893731 0.17535473 -0.14944565 -0.122450314 0.14442433 0.10761988 -0.13303082 -0.010993414 0.010827977 0.19156568 0.03428504 -0.15317068 0.10032496 -0.08421101 0.015701544 -0.2135874 -0.0205987 -0.09666472 -0.113977745 -0.041700672 0.074754715 0.15307185 -0.02787072 -0.07741689 0.18377851 0.17589894 0.0727655 0.075981185 0.12841806 0.03484632 -0.32778054 -0.21884535 0.085234724 -0.10027374 -0.0040966524 -0.1850404 0.08064272 -0.016470775 0.14270028 -0.10121366 -0.00045792863 0.11170675 -0.0923104 -0.17461361 -0.19720952 -0.005952137 -0.110549696 0.07048611 -0.045770418 0.011088823 -0.040719807 -0.081431724 0.10835115 0.004205909
275 0.024247881 0.17640157 0.025801184 -0.1228078 0.017970512 0.07352653 -0.013147276 0.13522723 -0.0492478 -0.003131271 0.0054045944 -0.057465695 -0.13634595 0.077823505 0.040412605 -0.177972 0.08351681 -0.041394103 0.11738925 -0.15902902 0.014698713 -0.1307298 -0.18803702 0.073899835 -0.03998999 -0.1878419 -0.122446395 -0.026304333 0.10331521 -0.112779185 0.005359027 0.15086709 -0.19895568 0.22475131 0.19601262 -0.021819316 0.055997685 -0.0044982093 -0.12838298 -0.15901157 0.007230744 0.08082044 -0.15373129 0.06383011 -0.108160295 0.23616032 -0.1303612 0.19871826 -0.057928555 -0.080822855 0.11136752 0.13822043 0.22238302 -0.06436686 -0.06654806 -0.10172605 0.06911081 0.018551804 -0.016501965 -0.030295929 0.107422285 0.075383246 0.0024604243 0.17566384 0.13864522 -0.020957245 -0.029620886 -0.009241853 0.11594018 0.09199034 -0.02639685 -0.05319773 -0.050944053 -0.21881789 0.089514524 0.17786299 -0.1490689 -0.124913484 0.1476547 0.09962949 -0.1401185 -0.017512007 0.012405171 0.19446996 0.033752363 -0.15928909 0.11368964 -0.08507931 0.013719899 -0.22161484 -0.025142906 -0.09949496 -0.119673885 -0.037115823 0.07530846 0.16077654 -0.02096793 -0.07211025 0.17465757 0.1686109 0.06491793 0.074012905 0.13501272 0.024872359 -0.32967228 -0.22415337 0.08460674 -0.09123329 -0.009758573 -0.19088525 0.07581275 -0.027486546 0.14928913 -0.10394997 0.009315897 0.1095593 -0.10040044 -0.17011958 -0.19517185 -0.0055638943 -0.10904121 0.070896834 -0.05436134 0.011400941 -0.044438954 -0.08307597 0.121832825 0.007663024
266 0.02600924 0.1711163 0.022558445 -0.12429534 0.019673668 0.0664298 -0.0012471442 0.14214097 -0.041178543 0.00084816274 -0.00074364495 -0.051644545 -0.14067061 0.07173443 0.044143867 -0.17972201 0.07943886 -0.048882645 0.11860334 -0.1508945 0.017648973 -0.12630892 -0.19293475 0.067418054 -0.04096246 -0.183741 -0.120254 -0.023964435 0.09310728 -0.112630576 0.0069725043 0.14247948 -0.19093204 0.21897231 0.19209626 -0.024084521 0.060073953 -0.004077561 -0.12415392 -0.17077771 -0.0017050478 0.08829648 -0.16789335 0.064429976 -0.1054595 0.22576012 -0.13191001 0.19328628 -0.063603215 -0.0801623 0.103452094 0.13064401 0.21620655 -0.05526567 -0.07360768 -0.103385635 0.06660124 0.02176113 -0.024159364 -0.034920238 0.10330144 0.07944429 -0.0067464095 0.17063048 0.14500338 -0.019975025 -0.028787509 -0.015165605 0.1138079 0.09670522 -0.0346569 -0.06067701 -0.047682732 -0.22607508 0.09000258 0.17372012 -0.15466975 -0.12370325 0.14078277 0.09884104 -0.13550602 -0.005190393 0.012644787 0.18575554 0.028841404 -0.14809096 0.103394434 -0.07686462 0.0099185845 -0.2219539 -0.020137938 -0.089104995 -0.11145511 -0.03090186 0.07400649 0.15718645 -0.02799005 -0.07243843 0.18106772 0.16953166 0.073209085 0.06441592 0.12068916 0.01801571 -0.33213374 -0.21995679 0.08185235 -0.08956504 -0.017233577 -0.18482327 0.081004135 -0.023815684 0.14963578 -0.1004341 -0.001151736 0.10232401 -0.09308084 -0.18303123 -0.2032753 -0.008165742 -0.104075685 0.074426025 -0.053027097 0.014849912 -0.04262656 -0.07826204 0.11358142 0.0048291255
22 0.02152346 0.1695653 0.032045506 -0.121991396 0.011569364 0.07938375 -0.014745315 0.12431184 -0.039871514 -0.0021105867 -0.004185639 -0.0559753 -0.15016668 0.078545064 0.046804257 -0.17589858 0.07920359 -0.045183465 0.11319764 -0.15280868 0.01634008 -0.13436481 -0.19529583 0.06152198 -0.04554656 -0.18878725 -0.12646607 -0.028257485 0.09799432 -0.11513747 0.021285163 0.14388037 -0.19943294 0.23135231 0.19603606 -0.03150599 0.064837255 -0.009801049 -0.12443809 -0.15337779 0.0019019921 0.08432161 -0.15245351 0.065077305 -0.10045452 0.22316492 -0.13978335 0.19436869 -0.055697963 -0.07572578 0.106029816 0.1415224 0.21479508 -0.063979484 -0.062335156 -0.10176914 0.07272554 0.017635515 -0.01801008 -0.029659674 0.101345055 0.06968495 0.007236446 0.16757375 0.13548726 -0.03626617 -0.03700092 -0.018712392 0.12714246 0.0820005 -0.026485618 -0.062228486 -0.037525404 -0.21756694 0.087031275 0.17328241 -0.14909917 -0.11822375 0.14279342 0.102044985 -0.14130966 -0.007336487 0.009760687 0.19558948 0.039766513 -0.16090865 0.104595765 -0.0966176 0.025720434 -0.22137246 -0.012850332 -0.089106284 -0.1237123 -0.03810929 0.0850699 0.14418757 -0.022511708 -0.06891599 0.175 0.16724367 0.07313209 0.07986857 0.12822746 0.028874366 -0.33371297 -0.21567795 0.082572795 -0.08685712 -0.01885585 -0.1824537 0.07209673 -0.021439957 0.14162955 -0.11257645 0.013071344 0.09271462 -0.091748826 -0.17321283 -0.19688216 -0.009220472 -0.1105439 0.064476 -0.043751586 0.017925177 -0.051070374 -0.06984001 0.11959144 0.007280717
473 0.0297971 0.16790101 0.023651507 -0.11017862 0.013125611 0.06870445 -0.009907245 0.1356282 -0.043830674 0.0025984854 0.0068030143 -0.051625196 -0.14183113 0.07221141 0.033163246 -0.16864516 0.07856905 -0.03863944 0.10971444 -0.15327375 0.013082239 -0.13426156 -0.18242452 0.06154456 -0.03758351 -0.19167577 -0.12508523 -0.019311601 0.1021802 -0.10514884 0.011848515 0.13834195 -0.20041107 0.21592757 0.18832056 -0.025593877 0.054795705 -0.0057645612 -0.12569022 -0.15051399 0.004306326 0.09145904 -0.16192544 0.070622936 -0.093203574 0.22912627 -0.12907968 0.1963689 -0.055910125 -0.07742221 0.113270685 0.1345482 0.20395868 -0.062212203 -0.067190155 -0.10154548 0.078668274 0.0073211426 -0.020155773 -0.020286644 0.0999229 0.0774498 0.00034824837 0.17176262 0.14279997 -0.02516183 -0.028596945 -0.008876444 0.12191232 0.093169264 -0.03267961 -0.058385607 -0.055615824 -0.21792623 0.09114583 0.17634974 -0.14995208 -0.123864464 0.13997766 0.107954256 -0.13877836 -0.004828284 0.017634941 0.19010225 0.033236697 -0.1423774 0.1031257 -0.09284456 0.011783161 -0.22433348 -0.01683833 -0.09452188 -0.115157925 -0.04117025 0.07236765 0.15517144 -0.025109636 -0.0737693 0.18110299 0.17022733 0.07420459 0.080624394 0.12874183 0.03258136 -0.32624814 -0.21703206 0.07633989 -0.09361736 -0.0064575095 -0.18407041 0.08597679 -0.023014141 0.1447331 -0.101886734 0.008287283 0.09476917 -0.08904777 -0.17232373 -0.19217597 -0.006446902 -0.10448978 0.070911825 -0.052940745 0.01793585 -0.0485165 -0.08410787 0.107395835 -0.0028134612
84 0.021491667 0.17780808 0.019821754 -0.115749985 0.023479234 0.075728275 -0.0028884409 0.14430827 -0.042098496 -0.0054252925 0.0029645164 -0.046132725 -0.1457991 0.07591673 0.034901813 -0.18873689 0.07922479 -0.041689098 0.10996673 -0.15392222 0.008366525 -0.13067894 -0.19365782 0.066948034 -0.047786653 -0.19363514 -0.12685242 -0.020496242 0.09458934 -0.1035828 0.016321069 0.14855288 -0.19931456 0.22117592 0.19569641 -0.021545393 0.054014683 -0.012470198 -0.1270196 -0.16160202 -0.004599582 0.088443644 -0.1642151 0.06672513 -0.09758513 0.235039 -0.13677146 0.19055435 -0.052712295 -0.07912087 0.10892018 0.13576773 0.21417293 -0.063002706 -0.07608139 -0.10473226 0.07525514 0.01449973 -0.02277611 -0.0272653 0.09926283 0.08028255 -0.006216193 0.16955435 0.14810784 -0.018942544 -0.033259302 -0.014705415 0.12416159 0.09536514 -0.030622464 -0.05425882 -0.054605152 -0.227948 0.09093846 0.17999572 -0.15851039 -0.12425171 0.13949862 0.10230063 -0.13653822 -0.008184341 0.013976688 0.18495905 0.037373696 -0.1524367 0.10665191 -0.082982704 0.0138518885 -0.2279962 -0.02316493 -0.09726881 -0.1183809 -0.03923247 0.08186247 0.15630789 -0.021333238 -0.07851308 0.18318354 0.17351641 0.069789484 0.06989263 0.13334833 0.021666666 -0.32935223 -0.2202334 0.078084275 -0.10159259 -0.016928272 -0.19458824 0.08065025 -0.019070022 0.14393619 -0.10913407 0.0038572159 0.10525037 -0.09562756 -0.18020655 -0.1957364 -0.0039760387 -0.10858515 0.07100226 -0.048812352 0.022209471 -0.041935496 -0.0760032 0.113639586 0.00016815789
608 0.02725131 0.17453656 0.021853393 -0.12471939 0.013046858 0.07584238 -0.0047258036 0.14531311 -0.041105315 9.2618335e-05 -0.0022211727 -0.04681318 -0.14677975 0.08408146 0.040173743 -0.18181829 0.07864343 -0.046966366 0.11179784 -0.15771146 0.015810648 -0.13555275 -0.19162185 0.07342735 -0.037713114 -0.19574063 -0.12511317 -0.029409405 0.09542734 -0.10721881 0.006459607 0.14971226 -0.19301027 0.22613211 0.19569965 -0.02307428 0.05531734 -0.011541838 -0.13790375 -0.16072808 0.0046739285 0.08985712 -0.16172549 0.068181925 -0.1045233 0.23024529 -0.1396583 0.19855537 -0.054162353 -0.08234022 0.106235065 0.13795921 0.21294993 -0.06032145 -0.06589402 -0.10356074 0.07159286 0.020335825 -0.024455583 -0.031906117 0.10257705 0.0818808 -0.008072605 0.17294729 0.14496207 -0.025284428 -0.035189267 -0.008430212 0.12157499 0.097377464 -0.03243744 -0.05798279 -0.050554134 -0.22380503 0.09351454 0.17804134 -0.15644611 -0.12782744 0.14163697 0.0955464 -0.13539357 -0.014093156 0.009803968 0.1939774 0.037526313 -0.1566314 0.11172952 -0.090229295 0.012930076 -0.22660072 -0.019095248 -0.09486591 -0.11114325 -0.040450417 0.086366095 0.15277548 -0.022514451 -0.07054346 0.18006103 0.16724226 0.07151556 0.07327686 0.13091218 0.02498351 -0.3248793 -0.21510036 0.086122766 -0.09463609 -0.009143255 -0.18710904 0.08098928 -0.022496212 0.1392296 -0.09855777 0.00653804 0.10474956 -0.09721154 -0.17558987 -0.19072433 -0.0068450645 -0.10977695 0.06909505 -0.062371116 0.010609468 -0.04860483 -0.081237465 0.11383829 0.0061027906
461 0.023337279 0.1759422 0.026934136 -0.11912934 0.009420925 0.07371089 -0.0033767088 0.13590199 -0.047164865 -0.010297213 0.0018638195 -0.055821545 -0.14660212 0.07670044 0.036738448 -0.17662698 0.07799756 -0.047834244 0.11432095 -0.15214635 0.012297784 -0.13591805 -0.194252 0.06789276 -0.039835837 -0.19166954 -0.13233067 -0.029121276 0.10414543 -0.10553633 0.01187066 0.14195529 -0.1948929 0.21968515 0.19826707 -0.02313228 0.05585193 -0.0061657885 -0.12674569 -0.16560143 0.0042196107 0.094845116 -0.16642433 0.07221958 -0.104963675 0.23032069 -0.1408685 0.1966866 -0.050145414 -0.0816291 0.10547671 0.126981 0.22023101 -0.0643805 -0.065642275 -0.0932159 0.08057005 0.015398434 -0.014792126 -0.0371054 0.09866703 0.07406023 -0.0018250664 0.1660085 0.14578514 -0.020559238 -0.0322782 -0.005025201 0.12150909 0.097635455 -0.025956 -0.05906543 -0.04797531 -0.22424567 0.090371706 0.16544299 -0.15047447 -0.12204761 0.13487913 0.10183844 -0.13980345 -0.009067516 0.010715464 0.18564971 0.026688932 -0.15511997 0.09936252 -0.078152776 0.018366948 -0.227458 -0.016188607 -0.09565652 -0.11541555 -0.039081857 0.0792932 0.15554133 -0.020817086 -0.074290894 0.17395882 0.17307098 0.07505575 0.07511137 0.12839903 0.029777044 -0.32926694 -0.21463393 0.0776647 -0.09702293 -0.008699748 -0.19026546 0.08185247 -0.020594047 0.14693475 -0.10310801 0.0018876531 0.104554504 -0.091793746 -0.1758887 -0.190053 -0.00017969563 -0.11458419 0.059638295 -0.04984058 0.015194998 -0.050002854 -0.08356872 0.11791968 0.0063662967
48 0.023567539 0.1771474 0.02316481 -0.11907362 0.021961236 0.07637583 -0.006380571 0.13512944 -0.03487146 0.0049458863 0.010283177 -0.047521368 -0.14700495 0.08281608 0.038709316 -0.1905716 0.08369979 -0.05124384 0.11636777 -0.15910684 0.013246922 -0.13320963 -0.1947718 0.068816 -0.05047346 -0.19258311 -0.118959196 -0.029408045 0.09877326 -0.116324924 0.015069034 0.13900892 -0.19430788 0.2254331 0.18966232 -0.032532517 0.062348068 -0.012547368 -0.13483173 -0.1619526 0.0029051253 0.08871347 -0.16121095 0.06761629 -0.1075589 0.23156762 -0.1364007 0.20121759 -0.06095094 -0.08417334 0.104639985 0.12702788 0.21454453 -0.06505845 -0.06625754 -0.10147257 0.07692081 0.022029843 -0.023993433 -0.024555948 0.098595425 0.07031257 0.0032538692 0.1662549 0.1386594 -0.026288332 -0.035231043 -0.008258626 0.11305052 0.08692547 -0.027175112 -0.05658796 -0.05506177 -0.22298345 0.088604055 0.16570728 -0.14426485 -0.123293474 0.14068688 0.09577482 -0.1403474 -0.0061399704 0.0145326285 0.18194921 0.03767835 -0.14862981 0.11089059 -0.079792835 0.011447619 -0.2208987 -0.026996555 -0.0855976 -0.11884912 -0.034502804 0.08125819 0.14759219 -0.030061223 -0.06636836 0.17855243 0.16188347 0.0673938 0.06578902 0.1256745 0.022526093 -0.32377556 -0.20832632 0.08070395 -0.09101832 -0.01332191 -0.18701318 0.08270118 -0.023216268 0.14336705 -0.09656712 0.0133492295 0.0963823 -0.09314546 -0.1742526 -0.19259845 -0.0061629117 -0.114716925 0.07258904 -0.053923115 0.01940862 -0.042028375 -0.08594776 0.11892158 0.0015173518
295 0.02589544 0.17329791 0.022148445 -0.11413229 0.022503495 0.07230287 -0.010966694 0.14200307 -0.040899284 -0.0021619897 0.010333355 -0.046165712 -0.1392672 0.07425739 0.03601094 -0.18176977 0.080639295 -0.045383867 0.1087596 -0.15739976 0.01226071 -0.13365068 -0.19440071 0.071714506 -0.050166313 -0.18686117 -0.1273432 -0.02664479 0.0932868 -0.10722194 0.019490859 0.14902858 -0.1941581 0.21443827 0.19692409 -0.031223647 0.059956897 -0.011963494 -0.13462563 -0.16419736 0.0067944103 0.08598705 -0.16430591 0.06630848 -0.100556396 0.23014605 -0.13286789 0.19677378 -0.06250723 -0.08082476 0.1073526 0.1356755 0.22049084 -0.055527017 -0.066564605 -0.09371787 0.07487962 0.01068403 -0.02036961 -0.029832566 0.10674786 0.073472515 0.0026706243 0.16952011 0.13867196 -0.020671602 -0.036370717 -0.0104159005 0.12180049 0.08994457 -0.025788404 -0.057775006 -0.04654055 -0.22171755 0.0862711 0.17431933 -0.15605988 -0.12950234 0.13560975 0.096624404 -0.1420177 -0.01618834 0.012530261 0.18807386 0.03975105 -0.15167964 0.10075143 -0.08847293 0.012753378 -0.22988431 -0.02533597 -0.09159995 -0.115791515 -0.04652252 0.0827343 0.16066359 -0.022008685 -0.07364817 0.17950594 0.16815774 0.06763433 0.06407091 0.136878 0.022934588 -0.318688 -0.22429821 0.08280464 -0.094137385 -0.0099766785 -0.18391986 0.08396081 -0.027109323 0.14202687 -0.10624269 5.8609792e-05 0.09740259 -0.10032493 -0.17056152 -0.19105303 -0.0053175953 -0.11254727 0.06719374 -0.05112382 0.022315191 -0.04826154 -0.08164566 0.116739064 0.004573274
215 0.024392545 0.17347667 0.019737342 -0.12363842 0.017719798 0.07162476 0.0031962008 0.13830091 -0.041363012 -0.0040770043 0.0056101345 -0.044719 -0.1417588 0.07947655 0.03798725 -0.18182212 0.074528955 -0.041698873 0.11614455 -0.15144292 0.017182654 -0.12910281 -0.18601222 0.070784025 -0.047235105 -0.18663871 -0.13227285 -0.018227722 0.090660475 -0.10463411 0.009251199 0.14552991 -0.19271566 0.22874829 0.1913294 -0.029151877 0.051968534 -0.00791471 -0.136343 -0.1638771 -0.0020385643 0.08978383 -0.16659191 0.06694855 -0.101134636 0.2366064 -0.13048422 0.2024506 -0.0514941 -0.08716059 0.10852083 0.12715505 0.22173513 -0.064612135 -0.06996001 -0.09594482 0.0802239 0.014825173 -0.015543671 -0.029227696 0.108888626 0.08122048 -0.0024382174 0.16711886 0.13817425 -0.02291649 -0.031153833 -0.013133366 0.11616053 0.09200563 -0.02329113 -0.052455433 -0.04792603 -0.22684549 0.098273404 0.1686343 -0.1511018 -0.12384534 0.14286076 0.096284635 -0.1348835 -0.011601975 0.013923723 0.1900497 0.030841501 -0.14814113 0.09795557 -0.0912024 0.008425123 -0.22808024 -0.02054462 -0.095952444 -0.11308357 -0.03488269 0.07844935 0.15469448 -0.022267578 -0.06731454 0.17717296 0.1675595 0.07078664 0.06547849 0.12817122 0.026502363 -0.32508656 -0.22007586 0.08590508 -0.08831995 -0.009654189 -0.18808512 0.08398007 -0.029823923 0.14180475 -0.102359034 0.0028576232 0.10347064 -0.096199654 -0.1778867 -0.19488257 -0.004128089 -0.10466243 0.061616234 -0.048067886 0.01785866 -0.047171485 -0.07265611 0.10869561 0.006664383
78 0.028839767 0.172907 0.022006517 -0.12278622 0.014434895 0.07566834 -0.0074039805 0.13655831 -0.041930392 -0.0040344778 0.008183276 -0.0567549 -0.14128841 0.07942237 0.049238693 -0.18937613 0.07977211 -0.04153082 0.11244623 -0.15984166 0.016825007 -0.12359395 -0.18500778 0.07250061 -0.046663336 -0.19601013 -0.12023849 -0.023020735 0.09037273 -0.11575268 0.0077674394 0.14192548 -0.19555646 0.22931643 0.19268215 -0.033495374 0.060531948 -0.014050048 -0.1327099 -0.15855673 0.0049473397 0.089120746 -0.15918672 0.06316961 -0.108677566 0.23442438 -0.12884867 0.20379867 -0.055940676 -0.0805505 0.10306078 0.1340295 0.21973598 -0.05878869 -0.07105222 -0.09952123 0.07363919 0.011917899 -0.019987572 -0.016031418 0.10699652 0.07459877 -0.0053628865 0.17440501 0.14360784 -0.023141786 -0.03705284 -0.008723941 0.11394057 0.09195408 -0.021038854 -0.05346147 -0.055329144 -0.22610682 0.09280622 0.16831103 -0.15560408 -0.122757085 0.14539419 0.105421804 -0.14664349 -0.010879287 0.01633945 0.1929753 0.03485307 -0.14873514 0.10774124 -0.09191765 0.01325111 -0.21625577 -0.018223768 -0.09644583 -0.11895474 -0.03919888 0.08534713 0.15746947 -0.020540006 -0.07491601 0.18821882 0.17098251 0.07293565 0.07582599 0.12460182 0.02198584 -0.33163524 -0.22006562 0.086372 -0.09020565 -0.014363929 -0.18758371 0.08606647 -0.019953579 0.14901198 -0.100068375 0.00019060109 0.10974167 -0.10317113 -0.18132569 -0.2001635 -0.0076778242 -0.10915592 0.07132425 -0.05693185 0.022521902 -0.051466495 -0.0838418 0.11108003 0.006669109
11 0.032037534 0.18180564 0.019602574 -0.12265784 0.01627275 0.07621969 -0.010477415 0.13747512 -0.045514885 -0.004857796 0.0086188335 -0.045788944 -0.14738943 0.07733923 0.040277064 -0.185962 0.07523467 -0.042785514 0.11198388 -0.15222082 0.019970736 -0.13922042 -0.18646747 0.071679436 -0.04637454 -0.18261889 -0.121208616 -0.015909648 0.09930467 -0.10282729 0.014319303 0.14265971 -0.20191461 0.22972119 0.19806822 -0.031556405 0.05819136 -0.014589035 -0.13903306 -0.16129477 -0.00045132788 0.08451196 -0.15591212 0.0669233 -0.10161641 0.22756052 -0.132164 0.19217637 -0.058051553 -0.077890426 0.10981148 0.13451564 0.21675637 -0.05996702 -0.0724296 -0.09643858 0.07116015 0.0100647565 -0.0147467675 -0.028091952 0.09830237 0.074766375 -0.0017012568 0.16592154 0.13638279 -0.015549059 -0.030318772 -0.0121070035 0.111120686 0.095377274 -0.023578875 -0.060390685 -0.04901945 -0.22001536 0.08757606 0.17671606 -0.14694273 -0.12072396 0.13267832 0.101298444 -0.13815983 -0.013327179 0.0134616 0.18795781 0.034510158 -0.14932466 0.10171503 -0.08050579 0.016900646 -0.21685135 -0.0189378 -0.08589581 -0.120174356 -0.042570136 0.081326365 0.14799558 -0.021414721 -0.07751373 0.1775733 0.17311625 0.068010524 0.068556026 0.13220552 0.023753745 -0.3275601 -0.21173334 0.07536186 -0.099241264 -0.012438223 -0.18519413 0.073736124 -0.023644663 0.14945918 -0.100869924 0.0022563976 0.107010126 -0.09944105 -0.17075963 -0.18702501 -0.011189597 -0.113592654 0.06392666 -0.047274027 0.014105293 -0.049966957 -0.07148815 0.11398502 0.0016357462
32 0.028063526 0.17113091 0.021337291 -0.124213465 0.01884741 0.07205695 -0.008544306 0.13209909 -0.04567909 -0.0075998134 0.0011067389 -0.053494785 -0.12932137 0.06705182 0.040282253 -0.17653434 0.07845982 -0.047215074 0.107171044 -0.15899833 0.019976472 -0.12836702 -0.18399814 0.0637084 -0.046971004 -0.17830381 -0.12121445 -0.0210719 0.089695 -0.108885415 0.001494209 0.1387118 -0.18359828 0.22321288 0.18500404 -0.028443763 0.05926266 -0.0038699212 -0.12308734 -0.16237459 0.003210443 0.0863584 -0.15590458 0.05899906 -0.098267585 0.21947022 -0.12787493 0.19477978 -0.054997798 -0.07538526 0.104878664 0.123408474 0.21140108 -0.06344128 -0.07132647 -0.092981845 0.06677113 0.021160426 -0.024857245 -0.031394012 0.100699574 0.070259415 -0.007868852 0.17037638 0.14355807 -0.018009266 -0.031535864 -0.014551328 0.11785839 0.083325304 -0.026405238 -0.055269342 -0.054105394 -0.21765397 0.09383463 0.17097187 -0.14972012 -0.124252185 0.13915971 0.10260488 -0.13562611 -0.01017504 0.010904362 0.18979536 0.044118136 -0.14923444 0.10294148 -0.086975805 0.00540535 -0.21335447 -0.02454708 -0.08847672 -0.119129315 -0.0450533 0.080591366 0.14729463 -0.025249185 -0.07204598 0.17648397 0.16909438 0.069877364 0.07479667 0.1283287 0.029463178 -0.31424028 -0.21905963 0.07934192 -0.102439314 -0.0045433473 -0.18900439 0.07901228 -0.018825494 0.14132394 -0.101751275 -0.003766917 0.10491171 -0.09513638 -0.17537557 -0.1951591 -0.008801694 -0.10658215 0.07155059 -0.045046896 0.009479343 -0.044142824 -0.075788856 0.11428795 0.009744626
